127 300
color -0.11223 -0.53617 -0.047653 0.37683 0.27587 0.1846 -0.29126 -0.14006 0.028147 -0.021623 0.014709 -0.065916 -0.28136 0.48325 -0.18186 -0.45954 -0.011717 0.047898 0.11237 0.27723 0.49938 0.53716 0.12424 -0.43645 -0.25191 -0.64412 -0.15486 -0.17702 -0.036069 -0.061716 0.11199 0.28624 -0.42265 0.19234 -0.14925 -0.27508 -0.1023 0.030629 -0.35137 -0.4127 0.41507 -0.29796 0.15482 -0.61156 0.35195 -0.35585 -0.042423 -0.0023837 -0.15502 0.081549 0.14457 -0.47714 -0.38836 -0.12349 -0.50989 -0.47951 0.3448 0.4667 0.34595 0.61653 -0.35188 -0.013116 -0.13253 -0.14783 -0.73218 -0.51567 -0.33403 -0.56839 -0.29169 -0.52243 0.10816 0.051853 -0.10427 0.10792 0.21227 -0.41063 -0.39494 -0.067021 0.48607 0.10192 0.010087 -0.40102 -0.35313 -0.1718 -0.51437 0.42307 0.1774 -0.082007 -0.053564 0.026561 0.012244 0.48235 0.16206 -0.32202 -0.4969 -0.26854 -0.065904 0.012139 -0.16184 0.055165 0.25499 -0.044325 -0.074497 0.11811 0.11935 0.47735 0.19551 -0.27325 -0.14726 -0.11199 -0.30366 0.18826 0.30628 0.33371 0.068359 0.18736 0.45552 -0.07847 -0.21794 0.15996 -0.29945 -0.0078643 0.13459 0.28467 -0.29275 -0.53656 0.14053 -0.040625 0.09802 -0.39649 -0.11448 -0.72737 0.77537 -0.24094 -0.25672 1.033 -0.44684 0.15428 -0.52493 -0.069066 -0.20802 0.29588 -0.42169 0.018893 0.48346 0.10662 -0.22534 -0.20234 0.22987 -0.31852 -0.38535 -0.076754 -0.025691 0.64218 0.11006 0.55169 -0.3964 0.04021 -0.19422 0.70188 0.14522 -0.038876 -0.03702 0.56532 -0.48544 0.075467 0.023831 -0.04575 0.23638 0.22239 0.40674 0.068816 -0.19754 0.18211 -0.32074 0.17026 -0.37427 -0.35029 -0.30949 0.43287 -0.49617 0.22029 0.13726 0.33058 -0.69813 -0.20259 -0.11236 -0.44265 0.22238 0.1689 -0.27515 0.29009 -0.032898 0.11293 0.41297 -0.13688 -0.92376 -0.14258 -0.37889 -0.10595 0.079959 -0.29313 0.48573 0.17861 0.21429 0.37926 0.11683 -0.66098 0.31108 0.091836 -0.18628 -0.25625 0.40398 -0.29857 -0.32869 -0.3994 -0.015803 0.23945 0.25087 0.1678 0.46012 0.12774 0.20473 -0.1117 -0.050084 0.47008 0.15122 -0.33454 -0.35738 0.7994 0.33727 -0.068743 0.19797 0.49739 -0.2343 0.032345 -0.090027 -0.15045 0.26835 -0.29893 0.49877 -0.32282 -0.41927 0.11078 -0.079016 -0.30954 0.013202 -0.12125 0.15124 0.69601 0.33793 0.046474 -0.03671 -0.037119 -1.2223e-05 -0.095167 0.19195 0.37304 -0.013059 0.18946 -0.087013 0.16411 -0.25874 0.99927 0.33881 0.37559 0.20477 -0.025569 -0.0041756 -0.32712 -0.46972 0.57908 0.097727 -0.0070779 0.23295 0.20317 -0.018444 -0.29928 -0.29566 -0.26564 -0.32244 0.092039 -0.17003 -0.343 0.25235 -0.17641 0.13979 0.39729 0.0057461 0.39676 -0.34304 -0.4724 -0.36535 0.19513 0.46985 -0.087277 -0.32489 0.60991 0.10623 -0.28679 
black -0.12502 0.18893 0.49673 -0.046424 0.44587 0.066231 -0.23677 -0.40011 0.052466 0.11465 0.29246 0.18533 0.044103 0.018961 0.37418 0.039233 0.3125 -0.45043 0.15793 0.19298 0.41218 0.13865 -0.14185 -0.37235 -0.3717 -0.36365 0.094605 -0.64959 0.29237 -0.066121 0.081838 -0.11421 -0.26075 0.037644 -0.057235 -0.2615 -0.22856 -0.20796 -0.36331 0.16204 0.07748 0.053618 0.48903 -0.40669 0.29836 -0.27617 0.4155 0.0428 0.67933 -0.24036 0.11624 0.019031 -0.33336 0.11493 -0.47471 -0.16043 0.28736 0.24469 0.25779 -0.40924 -0.34133 0.19542 0.037526 0.0049828 -0.11514 -0.34999 -0.3317 -0.21956 0.24826 0.47207 0.27935 0.098273 0.055138 0.15564 0.032722 -0.25106 0.22791 0.31642 0.12679 0.44252 -0.47304 -0.4235 -0.27469 -0.21362 0.10291 0.12389 -0.026753 -0.17544 -0.21684 -0.35541 0.1106 -0.050882 -0.25639 -0.12999 -0.43258 -0.4341 -0.26461 0.28826 0.34527 0.14914 0.02698 -0.23689 0.16242 0.12009 -0.017894 0.63163 -0.067738 -0.076064 0.10403 -0.37014 -0.35102 0.14135 0.20771 0.18577 -0.017031 0.3221 0.22032 0.0021162 -0.0114 -0.08069 -0.2262 0.12781 0.35688 -0.20082 -0.057804 -0.59756 0.056844 0.067927 -0.067101 0.18903 -0.098987 -0.44108 -0.024164 -0.52414 0.43016 0.30967 0.18063 -0.24333 0.23325 -0.32293 -0.12118 0.18256 0.028619 0.3178 0.13023 0.12797 0.22346 0.1492 -0.034827 0.14401 -0.47769 -0.35113 -0.077341 0.1022 0.13033 0.15049 -0.35851 -0.10138 0.54941 0.048696 -0.036085 -0.060401 0.10402 0.12844 -0.13421 0.37471 0.12275 -0.22301 0.19785 -0.20605 -0.23401 -0.040929 -0.0052474 -0.011972 0.19769 0.16806 0.052111 -0.012816 0.46452 -0.092546 0.049017 -0.0077046 0.20291 0.065035 -0.14631 -0.33345 -0.29716 0.31231 0.22089 -0.21028 0.029371 -0.0012445 0.15752 0.15871 0.42992 0.30736 -0.1979 0.2849 -0.13715 -0.12419 -0.03386 0.11139 0.36979 -0.057844 0.20564 0.3474 0.12193 -0.11311 -0.11477 -0.079939 0.15076 -0.26406 -0.16733 -0.23244 -0.23543 -0.0683 -0.29822 -0.075057 0.02522 -0.22902 0.30876 0.56555 -0.014008 -0.039586 -0.011387 -0.012575 -0.073398 -0.38088 -0.27415 0.19252 -0.5197 0.13006 0.10337 0.42688 -0.25172 -0.11902 -0.050624 0.34904 -0.0016281 0.26929 0.28213 -0.18044 -0.00078046 0.26005 -0.13227 -0.073629 0.10783 -0.3543 -0.33753 0.2598 0.0051908 0.11495 -0.50486 0.17194 0.22052 0.2606 -0.11837 0.84592 0.14774 0.42526 0.027069 -0.26581 -0.10308 0.24896 -0.13377 0.053737 0.01712 -0.13311 0.19073 -0.69552 0.3379 0.32171 -0.085589 -0.30491 0.071695 0.67791 0.061857 -0.27802 -0.0065414 -0.038792 -0.020242 0.49717 0.094377 0.2542 -0.42601 -0.19554 0.039023 0.12153 0.021457 0.57035 -0.14396 -0.4959 0.24909 0.114 0.71737 -0.11336 -0.41883 0.22242 0.28274 -0.075225 
blue 0.057805 -0.24916 0.052577 -0.44792 0.29469 0.13916 -0.34724 0.056208 0.060668 0.095896 0.29865 0.11196 -0.1536 0.33389 -0.25403 0.060413 -0.34353 -0.023262 0.35052 0.11195 0.30237 0.08065 -0.29524 -0.25586 -0.47528 -0.62791 0.20666 -0.21402 0.24135 0.095517 0.10571 0.11411 -0.30534 0.2318 0.26157 -0.30266 -0.14198 0.17306 -0.27365 0.22813 0.31021 0.049535 0.34778 -0.043554 0.062846 -0.15 0.24565 -0.11848 0.16525 -0.31299 0.51942 -0.13362 -0.19409 -0.10818 -0.13251 -0.22159 -0.13328 0.15974 -0.094242 0.15627 -0.20379 0.045663 -0.11543 -0.08943 -0.27539 0.10558 0.10036 -0.28195 0.15869 0.038559 -0.3001 -0.27185 0.21119 0.032234 0.33934 -0.53871 -0.16719 0.49483 0.025389 0.22288 -0.18468 -0.098865 -0.098628 -0.43297 -0.24623 0.60145 -0.11288 -0.59271 -0.21247 -0.018589 -0.23588 -0.065965 -0.55422 -0.16138 -0.22704 -0.54322 -0.18126 0.4776 -0.32642 0.25814 -0.14671 -0.097076 0.22849 -0.03929 -0.063198 0.75624 -0.20343 -0.43548 0.057326 0.10552 -0.095934 -0.20074 -0.11043 -0.098759 0.25926 -0.21739 -0.14084 0.3167 0.18705 -0.19686 0.096651 0.41081 0.15629 0.072118 -0.085024 -0.31445 0.32761 0.17752 0.045008 0.022114 -0.038996 -0.77758 0.13743 -0.15326 -0.13511 0.002358 -0.23344 -0.47149 0.10801 -0.40776 -0.61881 0.16399 -0.027432 -0.0072813 -0.00099575 -0.10042 -0.13464 0.11974 -0.070788 -0.20615 -0.32834 0.23215 0.042301 -0.11764 0.38311 0.21422 0.10433 -0.21698 0.028465 0.14278 -0.26218 -0.32296 -0.15506 0.65285 0.072042 -0.401 0.0031921 0.19249 0.15837 -0.00088596 -0.08151 -0.44776 -0.33124 -0.10454 -0.19536 0.073921 0.24029 -0.36979 -0.10666 -0.30242 0.06412 0.30622 -0.36104 0.060777 -0.23993 -0.38684 -0.13579 0.37275 0.41995 0.070452 0.35437 0.094873 0.2245 0.011721 -0.12742 -0.3229 -0.34924 0.41053 -0.30296 -0.54055 0.19322 0.60791 -0.13485 0.19472 0.14241 0.27878 -0.036732 0.025773 0.19877 0.0099683 -0.23577 0.016206 0.2828 0.20081 -0.073267 0.1065 0.18787 -0.27554 0.019871 -0.12797 0.089131 0.25664 0.12587 -0.17809 -0.36517 0.35418 0.2576 -0.3482 -0.29944 0.23675 0.17881 0.2917 -0.48385 0.32461 -0.09714 0.028061 0.363 0.37519 -0.090115 0.1122 0.073351 -0.33022 0.047219 -0.16273 0.11571 -0.14188 -0.29181 0.081101 -0.359 0.43948 0.23128 0.5123 -0.42131 0.088058 -0.096102 -0.31706 0.36099 0.29989 0.48549 0.10354 0.20737 0.094897 -0.17888 -0.28192 -0.046146 0.43569 0.14693 0.13779 0.31186 -0.70681 -0.020582 0.38418 -0.28389 -0.15702 -0.28832 0.48944 0.34729 -0.24221 0.27778 0.085356 0.18792 0.21264 0.083336 -0.71628 0.046103 -0.069863 -0.21208 -0.086171 0.045381 0.41872 -0.090973 -0.44491 -0.12351 0.60567 0.59958 -0.39134 -0.57273 0.11928 -0.15096 -0.27437 
brown -0.24032 -0.070286 0.13916 0.044339 -0.14893 0.1244 -0.22865 -0.22281 0.43576 -0.26456 0.021734 0.34201 -0.10524 0.27672 -0.091942 -0.58503 -0.2115 -0.24906 0.41682 -0.2599 0.4014 -0.12308 -0.062617 0.10873 -0.32197 -0.23343 -0.090277 -0.65642 -0.0011582 -0.37536 0.049675 0.40792 0.082072 0.28482 0.022814 -0.58396 -0.3906 -0.42415 0.15836 0.21551 0.2788 -0.40104 0.84271 -0.39631 0.10612 0.23146 0.36869 -0.16685 0.31217 -0.20753 0.30912 0.022547 0.043728 -0.37914 -0.29136 0.011614 0.22284 0.47329 -0.08577 0.17305 -0.26171 0.20079 -0.06684 0.093378 -0.5384 -0.27385 -0.31059 -0.38129 -0.080559 0.40844 -0.14552 0.058326 -0.15978 0.10042 -0.23421 -0.3706 -0.39515 0.40616 0.068661 0.27343 -0.42614 -0.42358 0.047314 -0.06641 0.12788 -0.084003 -0.0062149 0.13103 0.10484 0.031003 -0.18494 -0.056443 -0.46812 -0.12674 0.20996 -0.73984 -0.040443 -0.19827 -0.12305 0.14133 0.12694 -0.022863 -0.10264 0.27175 0.31169 0.067843 -0.1173 -0.38675 -0.17014 0.17964 -0.46789 -0.28525 0.28143 -0.33923 -0.22881 0.22646 -0.076726 -0.072132 0.099394 0.55394 -0.22818 0.06357 -0.20645 -0.10565 0.086631 -0.47601 0.26134 0.24855 0.13196 -0.25956 0.12959 0.082655 0.48335 -0.28386 0.088283 0.25147 -0.15912 0.074317 0.17575 -0.41197 -0.48165 0.42591 -0.027334 -0.20029 0.22953 -0.691 -0.13829 0.37609 -0.35448 0.10504 -0.38124 -0.33835 0.37707 -0.17917 0.11397 -0.27463 -0.23335 -0.13353 0.22205 0.43592 -0.26612 0.22871 0.084724 -0.10404 -0.097864 -0.32284 -0.22085 -0.23658 0.016855 -0.26752 0.42879 -0.38395 -0.10757 0.28831 -0.020836 0.38975 0.17005 -0.62793 0.10926 0.18991 0.093376 -0.16984 -0.047664 0.015372 -0.28185 -0.27378 -0.76218 0.28831 0.15736 -0.0062807 0.11671 0.66985 -0.24801 -0.077988 0.33485 -0.17661 0.031978 0.08785 -0.18974 -0.61049 0.33835 0.27523 -0.23802 -0.12244 0.018142 -0.027403 0.14136 0.059034 -0.32054 0.057849 -0.26774 0.13654 0.039146 -0.33362 -0.25795 0.076587 -0.048551 0.0069159 0.04327 -0.010461 0.318 0.12774 0.13581 0.15631 -0.43568 0.04874 0.18765 -0.12553 0.33453 0.080251 0.18696 0.078282 0.13346 0.44514 -0.042527 0.08857 -0.14683 -0.30187 -0.23741 0.11054 0.32937 -0.28953 -0.0030349 0.083037 -0.021774 -0.27145 0.22303 -0.28825 -0.23856 0.18127 -0.099337 0.078976 -0.39429 0.11512 -0.11067 0.0958 0.057604 0.57753 -0.14683 0.20252 0.10813 0.088908 0.060189 0.54971 0.10339 -0.3237 0.10537 0.18902 -0.37267 -0.42059 -0.0068826 0.19422 0.21439 0.027091 0.10519 0.28571 -0.3211 -0.23163 0.14399 0.10894 0.18678 0.18951 -0.11646 -0.070527 0.10538 -0.48731 -0.19307 0.48198 -0.57187 0.32678 -0.020729 -0.33441 -0.018776 0.076129 0.41645 -0.032414 -0.69083 -0.024667 -0.21595 -0.20663 
gray 0.63345 -0.17096 -0.045792 0.26271 0.15367 0.33715 -0.22077 -0.57129 0.12285 -0.37557 -0.064435 0.021917 0.24115 0.53225 -0.1089 -0.30346 -0.089441 -0.073501 -0.31557 -0.10637 0.25536 0.49074 -0.072954 -0.18419 -0.038849 -0.24295 -0.35435 -0.37502 0.16079 -0.24347 -0.38232 0.077543 -0.14445 0.069826 0.35777 -1.1099 0.099715 -0.12216 -0.36799 0.35074 0.42808 -0.27573 0.85135 -0.35914 0.45929 -0.15285 0.15993 0.10131 0.098336 -0.36213 -0.23856 -0.06284 -0.52428 -0.23129 -0.16538 -0.37758 0.46941 0.4129 0.20192 -0.16339 -0.51798 0.49365 -0.25969 0.0046961 -0.195 -0.25934 -0.33345 -0.89843 0.44669 0.17637 -0.075782 0.31546 0.16659 0.31158 -0.37777 -0.34143 -0.22109 0.19702 0.20683 0.19102 -0.42776 -0.3062 0.35659 -0.10301 -0.10279 -0.14929 0.040448 0.11404 0.16288 -0.004305 0.085983 0.5631 -0.14706 -0.43659 -0.46926 -0.89118 -0.41139 0.039982 0.11211 0.094708 -0.18082 0.53925 -0.1214 0.16214 -0.2154 0.0018911 0.081344 -0.20133 0.055746 -0.11191 -0.3933 -0.060454 -0.0057161 -0.55131 0.2394 0.070165 -0.02078 -0.22146 -0.04325 0.095783 -0.31324 0.27275 0.48905 -0.22971 -0.35626 -0.57654 0.83794 0.090644 0.28313 0.39596 0.14725 -0.059433 0.30611 -0.17368 0.39697 0.072215 0.091527 -0.22054 0.12483 0.044137 0.067518 0.18424 -0.20343 0.12744 -0.14097 0.074332 -0.036214 0.037291 -0.63097 -0.38585 -0.34041 -0.22204 0.33987 -0.01028 -0.18486 -0.34304 -0.086975 0.40093 0.31202 0.10028 0.27102 0.28918 -0.379 -0.0045107 -0.53721 0.0031601 -0.26653 -0.24186 0.67149 -0.19968 -0.23615 -0.40457 0.68737 0.17887 -0.32423 0.31509 0.31057 0.063152 -0.07011 -0.28402 0.27625 -0.13273 -0.12864 0.18967 -0.3191 0.18258 -0.57676 0.02479 0.28963 -0.31246 0.60465 0.1902 0.088946 0.032569 -0.054335 -0.085493 -0.56876 0.17728 -0.17987 -0.13575 0.29155 0.5938 -0.15195 0.055992 0.68012 0.21526 0.003446 -0.07035 -0.31372 -0.22118 -0.12289 -0.47369 -0.0069132 -0.23694 -0.30035 -0.3643 -0.20214 0.16571 0.2214 0.53745 0.076517 0.14468 0.41388 -0.10852 -0.13855 -0.016557 0.14528 -0.070347 -0.18158 0.24289 0.18759 0.13367 0.0494 0.23422 -0.054121 0.22174 -0.060678 -0.098059 -0.53212 0.097112 -0.19911 0.20335 -0.3308 0.15023 -0.018628 0.40186 0.30007 -0.031632 -0.14741 -0.26628 0.097204 0.72177 -0.99849 -0.11256 0.12452 -0.33019 -0.18189 0.8542 0.033068 -0.16851 -0.046861 -0.12459 -0.41459 0.1367 -0.28642 -0.047061 -0.2165 -0.20421 -0.11233 -0.21522 -0.2538 0.39082 0.14028 -0.57507 0.15388 0.20654 0.30297 -0.63484 0.54999 -0.1036 -0.22597 0.29114 -0.09305 0.086507 0.21695 -0.22506 0.15167 0.32982 -0.28864 0.043429 -0.54811 -0.20456 -0.06248 0.15157 0.59674 -0.28478 -0.41466 0.46738 -0.11689 0.28412 
green -0.14226 -0.23506 -0.34516 -0.55028 -0.20172 0.24109 0.063395 -0.26848 0.3462 0.05297 0.081521 0.49367 -0.26805 0.25148 -0.26502 0.34108 -0.14568 -0.40085 0.0080976 -0.44787 0.45863 0.23144 -0.096108 -0.1359 -0.2628 -0.34379 0.11953 -0.375 -0.17872 0.0042902 0.13095 0.29568 -0.15435 0.088617 0.0244 -0.28971 -0.43717 0.43208 -0.068164 0.31909 0.53434 0.026074 0.17852 -0.35668 0.36317 -0.098531 -0.040373 -0.44574 0.076935 -0.38376 0.28243 -0.17518 -0.072285 -0.25186 -0.070793 -0.10389 0.32298 0.18277 0.069183 0.10395 -0.49491 0.040562 -0.26613 0.056172 -0.13595 0.20699 -0.041704 -0.22244 0.19132 -0.092975 -0.17273 -0.01716 -0.13148 0.13696 0.015779 -0.26014 -0.02627 0.43664 0.23332 0.3408 -0.22216 -0.31964 -0.047063 -0.34782 -0.6789 0.10062 0.2129 0.20231 -0.14248 0.08417 0.32369 0.2228 -0.24136 0.25145 -0.066931 -0.82661 -0.049819 0.3547 -0.21133 0.065228 -0.23137 -0.18677 -0.074037 -0.11162 0.35986 0.54173 -0.13455 -0.25043 -0.010962 -0.072084 0.27755 -0.14994 -0.13389 -0.088431 -0.13265 -0.51226 -0.15555 0.35068 -0.063281 -0.3748 -0.17604 0.59669 0.14298 -0.3301 0.25995 -0.34226 0.50106 0.33466 0.066818 -0.00014255 0.14594 -0.12744 0.47769 0.035512 0.1023 0.42681 0.19579 -0.065241 0.12486 0.17177 -0.62434 0.047565 0.0014553 -0.12261 -0.23248 0.34587 -0.23232 0.36796 -0.42199 -0.061867 -0.40007 -0.051456 0.37064 0.16038 0.12615 -0.055822 -0.024057 -0.26977 0.41916 0.017174 -0.022097 0.024976 -0.25365 0.28316 -0.25584 -0.14959 0.015992 -0.33752 0.34131 -0.38929 0.39841 -0.011794 0.14581 0.18633 0.053527 0.23584 -0.0032599 -0.26184 -0.17877 0.038585 0.40937 0.35638 -0.23287 0.10544 -0.21495 -0.23258 -0.29126 0.3791 0.15441 -0.038525 0.13058 -0.00025315 0.30081 -0.022273 0.27235 -0.22841 -0.49451 0.47082 -0.38392 -0.37157 0.013905 0.12151 -0.022386 -0.23596 0.30436 0.072963 -0.10566 0.23397 -0.24706 0.43426 -0.28117 0.20547 0.24152 -0.021854 -0.42272 -0.039206 0.10937 0.75313 -0.25389 -0.065312 0.29568 0.030264 -0.28087 0.090245 -0.14501 0.16641 0.40669 0.077483 0.17943 0.53129 -0.0033031 0.76248 -0.29585 0.514 0.18916 -0.14069 -0.19697 -0.38855 0.23536 -0.24114 -0.048512 -0.53659 -0.37962 -0.26951 0.12797 -0.045896 -0.19204 -0.23475 -0.18986 0.41741 0.14157 0.032534 -0.1212 0.051263 0.1462 -0.2693 0.055873 0.58794 -0.075329 0.0093418 -0.2662 0.15304 0.038642 0.39584 -0.69209 0.51056 -0.072272 0.035 0.19122 -0.09556 -0.29041 0.26077 0.090634 0.012862 0.0426 0.050106 -0.0016785 -0.19311 0.72755 -0.024774 0.58027 0.41047 0.21524 -0.36565 0.42001 -0.13922 -0.3425 0.21659 -0.53858 0.55954 0.065917 -0.17945 0.19058 0.031387 0.073081 -0.086459 -0.64184 -0.17348 -0.31907 0.017158 
orange -0.34477 -0.34973 -0.091538 -0.18096 0.23532 0.2403 -0.80088 0.064549 0.2312 0.039456 -0.13022 -0.053778 0.33184 -0.11705 0.16363 0.15599 -0.17775 0.036396 0.020455 0.061185 0.46032 0.24371 0.10359 -0.56453 -0.2359 -0.54323 0.36993 -0.32489 -0.0049227 0.12877 -0.24912 0.60529 -0.28991 0.14385 0.27058 -0.31712 -0.099153 -0.096032 -0.28519 0.50414 0.68989 -0.25767 0.81441 -0.51317 0.51138 -0.21782 -0.18607 0.13957 0.52329 -0.14531 -0.10397 0.34089 -0.18727 -0.46602 -0.28644 0.03201 0.88366 0.47235 -0.17179 -0.15045 -0.49062 0.24652 0.37254 0.12482 -0.38551 0.21392 0.18178 -0.2915 -0.22622 0.43455 -0.45159 -0.17578 0.0030529 -0.1017 0.27836 -0.33827 -0.21215 0.53337 -0.10799 -0.3456 -0.26022 -0.19314 -0.068874 -0.12282 0.053746 0.16464 0.069131 -0.38674 -0.18551 -0.1184 0.51018 -0.36117 -0.21621 0.17542 0.0011947 -0.14275 0.16696 0.41383 0.33989 0.29302 -0.61646 -0.13737 0.13409 0.18602 0.45545 -0.1034 0.12514 -0.11663 0.052269 -0.10666 -0.28367 -0.13251 0.46195 0.18217 -0.4613 -0.35828 -0.2214 0.37181 -0.26403 0.045944 0.12614 -0.12413 0.086003 -0.28292 -0.23862 -0.1736 0.31922 0.12268 0.074087 0.071535 -0.36625 -0.65344 0.14238 -0.10641 -0.13802 0.59016 -0.0060523 0.22616 -0.035569 0.20567 -0.50387 0.15034 -0.20962 0.0087426 0.42359 -0.0047671 0.11225 0.56475 0.10881 -0.25256 -0.35991 0.19457 0.33514 0.2494 0.45163 -0.08083 0.060968 0.067897 0.4764 0.22985 -0.073782 -0.10802 -0.040721 0.078843 -0.39011 0.34318 0.082477 -0.018276 0.20999 -0.18608 -0.12537 0.026333 -0.30405 -0.32535 0.058889 0.3363 -0.048095 -0.33724 0.040856 -0.30861 0.32391 0.1075 -0.031867 -0.46537 0.0020134 -0.03708 -0.21302 -0.22549 0.037542 -0.23186 0.17947 0.020261 0.21837 0.18655 0.0025631 -0.21201 -0.56749 0.78014 -0.25466 -0.20076 0.58057 0.38564 -0.081696 -0.040216 0.32152 -0.2375 0.19304 -0.09346 0.22021 0.39407 -0.73371 -0.16624 -0.039972 -0.74133 -0.064533 -0.5078 0.25277 0.29064 0.053157 0.081633 0.21443 0.23065 0.075836 -0.027613 -0.30331 0.1604 0.26492 -0.1878 -0.3858 0.48218 -0.002308 -0.0068783 -0.1407 0.49606 0.13712 -0.28767 0.35532 -0.089082 0.028694 -0.15204 0.49732 -0.42212 0.23296 -0.23847 0.16399 0.021967 -0.013807 -0.13314 -0.17732 -0.16323 0.1387 0.18943 0.065658 0.19978 -0.43715 -0.36989 -0.18462 0.36731 0.053511 -0.17166 -0.18442 0.3959 -0.20153 0.30969 -0.00060131 0.24778 0.084794 0.10346 0.017296 -0.32473 -0.43755 0.074746 -0.25562 0.13739 0.19723 -0.062031 -0.055768 -0.082796 -0.027826 -0.28915 0.048904 0.35894 -0.076271 -0.12714 0.22089 0.12843 -0.25342 0.061099 -0.42906 0.112 0.099271 -0.42029 0.087942 -0.17212 0.43227 -0.3155 -0.71062 -0.041373 -0.088306 0.3522 
pink 0.30764 -0.40934 -0.045162 -0.17532 0.18557 -0.17122 -0.14909 0.33158 0.2913 0.0022472 -0.068762 -0.26795 -0.037062 0.027224 -0.099656 0.15484 -0.66646 0.19675 0.34398 -0.012738 0.30738 0.21877 0.26189 -0.20631 -0.47892 -0.516 0.24477 -0.035883 -0.12081 0.32379 -0.057584 0.083106 -0.16482 0.59039 -0.007836 -0.49619 -0.45354 0.47486 -0.36357 0.14378 0.039227 -0.089473 0.80468 -0.33955 0.06862 0.11546 0.2349 -0.47816 0.25057 -0.01108 0.24415 -0.061079 -0.60636 -0.018575 -1.0229 0.49441 0.20568 -0.069737 -0.13073 0.083329 -0.56132 0.30333 -0.14546 0.08718 -0.21514 0.0025272 -0.15758 -0.56648 0.30039 0.00099531 0.055586 -0.44656 0.14335 -0.35311 0.088051 -0.12781 -0.11103 0.09936 -0.2293 0.38151 0.1977 -0.65025 -0.62681 -0.26802 0.052657 -0.37207 0.034579 -0.14505 0.19274 -0.18463 -0.3562 0.10875 -0.22298 0.030651 -0.31427 -0.8348 -0.39653 0.27048 0.13003 -0.25601 -0.25535 -0.35578 0.41517 -0.085361 -0.13704 0.20074 0.075953 0.039903 0.0011586 -0.037621 -0.35819 0.020144 0.16295 0.15973 -0.31646 -0.51108 0.2712 0.19109 -0.47128 -0.067157 -0.12311 0.065668 0.40499 0.013088 -0.13075 -0.49215 0.71914 0.26544 0.0095073 -0.32147 0.098986 -0.73413 0.56494 0.30259 -0.18956 0.42342 -0.061746 0.14795 -0.0088241 0.10148 -0.45706 0.13421 0.067204 0.32754 -0.15265 0.38334 0.060679 0.27157 -0.36411 0.093771 -0.81218 -0.11076 0.27986 -0.62455 0.06072 -0.0078957 0.17434 0.086217 0.24204 0.61528 -0.44499 -0.11286 -0.2786 0.014876 -0.062529 -0.28258 -0.1778 -0.050743 0.29162 -0.1101 -0.040917 -0.44636 -0.23197 -0.51923 0.29691 0.078034 0.70712 -0.01704 -0.13805 0.18704 0.16792 0.37075 0.14764 0.29493 0.085739 -0.091282 -0.15691 0.028983 0.16832 0.065529 0.22554 -0.36425 0.084723 0.25485 -0.12738 -0.3616 -0.68141 0.31488 -0.36823 -0.089286 0.20158 0.082472 0.18069 -0.053063 -0.00066769 0.21208 -0.079236 -0.077601 0.093504 -0.26079 0.006061 -0.3704 0.38489 -0.3056 -0.011501 -0.60791 0.12831 0.23234 0.115 -0.2384 -0.04404 0.022014 -0.50441 0.33189 0.096316 -0.1791 -0.24056 0.52541 -0.3087 0.5771 -0.088347 0.34659 0.20547 0.58233 -0.32494 -0.3809 0.19521 -0.1817 -0.1229 -0.13365 0.41138 -0.28883 0.083091 -0.070492 -0.32059 -0.089074 0.34423 -0.12545 -0.42109 0.31751 0.025483 -0.24553 -0.082397 0.35053 0.026377 -0.51118 0.35336 0.27195 0.38905 0.27236 -0.18504 0.08481 0.2703 0.35417 0.077633 0.14034 -0.17133 0.09578 -0.32166 -0.52615 -0.13227 0.12477 -0.26511 -0.35584 0.24845 -0.081142 -0.1199 -0.18662 0.35009 -0.075032 -0.068212 -0.18757 -0.01553 -0.19981 0.5991 -0.3617 -0.018886 0.22634 0.20257 0.44938 -0.12189 -0.67927 -0.51704 0.10157 0.42224 -0.23709 -0.32387 0.13668 0.18415 0.225 
purple 0.089088 -0.51799 0.22786 -0.2023 -0.10169 0.32417 -0.43696 0.020359 0.024222 -0.17076 0.17061 -0.14393 -0.5252 -0.23665 -0.71886 -0.076289 0.020303 -0.089179 0.38903 -0.026686 0.8664 0.17012 0.18701 -0.072595 -0.1302 -0.43939 0.22986 -0.47133 0.30343 0.14786 0.22069 0.034254 0.12624 0.20934 0.090018 -0.33432 -0.2739 0.47353 -0.62978 0.54614 0.3393 -0.36549 0.54572 -0.32116 0.036468 -0.20495 0.06447 0.30836 0.28622 0.13595 0.58456 0.09393 -0.38133 -0.29548 -1.0281 0.22457 0.59043 0.25366 -0.27557 0.25439 -0.4062 0.18544 -0.15477 0.18892 0.088517 0.37072 -0.33525 -0.44916 -0.042515 -0.23351 -0.1912 -0.35799 -0.45519 -0.32184 0.045303 0.077174 -0.15118 0.25233 0.30792 -0.2047 0.088009 -0.47306 0.083119 -0.20372 -0.12566 -0.069403 0.15836 -0.40321 0.1266 -0.12609 -0.1039 -0.027823 -0.12281 -0.14928 -0.061957 -0.70416 0.07242 0.21318 0.36523 0.22493 0.019529 0.18158 0.049872 0.37803 -0.03528 -0.039445 0.41325 -0.19748 -0.38563 0.093909 0.1412 -0.56491 -0.09398 -0.33479 -0.13373 -0.25167 0.13166 0.29185 -0.068596 0.18777 -0.0065981 -0.20016 -0.065958 -0.054617 -0.2528 -0.26934 0.15382 0.15791 0.040314 0.24379 -0.33481 -0.20354 0.50859 -0.2271 -0.083999 0.33659 0.051427 -0.20114 0.012843 0.19989 -1.2205 0.024216 0.045061 0.57013 0.056389 0.058105 0.0094426 0.7203 -0.21307 -0.43078 -0.32369 0.21395 -0.48394 0.054065 0.093444 0.56383 0.22102 -0.27402 0.45244 0.39491 -0.44377 -0.37038 0.11771 0.18639 -0.22809 -0.0090147 -0.25931 0.091332 0.23082 -0.12092 -0.096201 -0.047211 0.11046 -0.095887 -0.25915 -0.30584 0.3813 -0.58175 0.18219 0.15555 0.55417 0.46012 -0.066295 -0.40227 -0.07813 0.019298 -0.45795 -0.29629 0.088108 -0.092963 0.066923 -0.25272 0.12586 0.26211 -0.3756 -0.41395 -0.6313 -0.021884 -0.45688 -0.14527 0.24379 0.031784 0.23799 0.13563 0.0057324 0.26672 0.44493 0.22894 0.10858 -0.1697 -0.16528 0.074686 0.48272 -0.085047 -0.16514 -0.38242 -0.041883 -0.070825 -0.072018 -0.090325 -0.21907 0.31032 -0.0018077 -0.22702 -0.22596 -0.20925 0.25815 -0.053831 -0.4844 0.4522 0.27447 -0.2046 0.026821 0.55203 0.086729 -0.43943 -0.34755 0.07866 0.60824 -0.24788 0.13122 -0.75776 -0.30286 -0.19193 0.31398 0.25322 -0.12287 -0.25186 -0.05999 0.898 0.053821 0.63049 -0.28959 0.10275 0.22283 0.032311 -0.19844 0.33854 0.12478 0.012188 0.33564 0.57675 -0.0042504 0.66791 0.02995 0.21145 0.40795 0.21558 -0.29954 -0.52321 -0.05459 -0.19569 -0.15005 -0.78126 0.1012 0.010648 0.31769 -0.75175 0.17634 -0.19831 0.15466 0.60249 -0.062766 -0.5692 0.33679 -0.54162 -0.31996 0.38187 -0.10299 -0.33753 -0.45693 -0.48973 -0.075178 0.14662 0.59759 -0.094784 -0.23787 -0.11544 -0.43731 0.13644 
red 0.057951 -0.17663 -0.014232 -0.68565 0.25465 0.048734 -0.79342 0.23256 -0.039016 0.082809 0.10828 0.25027 -0.56516 0.31001 -0.15375 -0.09222 0.039556 -0.36736 0.40461 0.29987 0.40041 -0.16526 -0.52805 -0.4098 -0.38241 0.02578 0.42207 -0.27378 -0.30002 0.6006 0.18697 0.0406 0.10532 -0.18135 0.19407 -0.42008 0.18266 -0.11181 -0.32926 0.14724 0.16516 -0.60682 0.54435 -0.3991 0.74434 -0.27578 0.64435 -0.25485 0.38398 0.01021 0.084106 -0.24175 -0.16382 0.10617 -0.72223 -0.079483 0.10574 0.17687 -0.19822 0.17687 0.017831 0.2248 -0.022968 0.17442 -0.025859 0.13871 -0.13203 -0.23915 0.197 -0.11479 -0.3552 0.21759 -0.0943 -0.41779 0.31529 -0.42197 0.092698 0.48751 0.1338 0.12598 0.1611 -0.38746 -0.32304 -0.13328 -0.15826 0.41568 0.22656 -0.16268 0.33873 -0.21365 -0.040119 -0.34766 -0.1663 -0.11089 -0.39271 -0.34423 -0.27298 0.19562 0.11101 0.24208 -0.15812 0.054103 0.045129 0.31143 -0.07962 0.27068 -0.063187 -0.20702 0.014217 0.33607 0.085032 -0.018434 0.10155 0.094927 0.13671 -0.54163 -0.33801 0.62534 0.10491 0.088797 -0.089843 -0.0088677 0.14826 -0.22413 -0.042834 -0.06999 0.36684 0.35282 0.31367 -0.14551 -0.24086 -0.44857 0.43168 -0.41883 -0.11567 0.31815 0.076058 -0.0042635 -0.10371 -0.19037 -0.31626 -0.094835 0.076688 0.14431 0.18359 0.13194 -0.1426 0.38193 -0.081709 0.20433 0.053585 0.18965 0.15073 -0.064213 0.07492 0.16136 0.13925 -0.34638 -0.15163 0.037513 -0.32387 0.32823 0.10214 0.22476 -0.17748 0.013256 0.2034 0.041172 0.50615 -0.12135 0.15912 -0.22974 0.11851 -0.41532 -0.3476 -0.055403 0.5041 -0.16569 0.25686 0.11451 0.053297 -0.12053 -0.10631 0.029276 -0.42485 -0.1026 -0.050126 0.65502 0.27545 0.072693 0.11176 0.3974 0.40095 0.32849 0.6099 0.019229 0.039543 0.25548 -0.4689 -0.27926 -0.0015364 0.12753 -0.048078 -0.33066 0.34698 -0.25078 -0.096063 -0.17801 -0.31056 -0.080601 -0.11207 0.14761 0.19221 0.38006 0.054401 -0.0036305 0.14301 0.02141 -0.016739 0.22896 -0.24722 0.18024 0.25811 -0.091745 -0.086689 -0.06011 -0.030797 -0.23573 -0.6343 0.39276 0.55407 0.27233 -0.14579 0.28122 0.032574 0.10696 -0.046612 0.20565 -0.18102 0.35584 0.14878 -0.35398 0.40168 0.050447 0.033208 0.10118 -0.045813 -0.26432 -0.11914 0.90255 0.27069 0.59668 -0.13764 0.28203 0.073059 -0.056212 -0.017691 0.095832 0.22515 0.14524 -0.10727 0.0047077 -0.40688 0.17942 -0.29348 0.20802 -0.17338 -0.24363 -0.15975 -0.2965 -0.29745 -0.12835 -0.24301 0.29799 -0.28468 -0.017898 0.12098 -0.25037 0.36459 -0.29592 0.23236 0.37414 -0.015928 -0.01734 0.28405 0.45186 0.49032 0.23389 0.052631 0.19888 -0.16101 -0.28147 -0.17246 -0.089527 0.41141 -0.15174 -0.77306 -0.1715 -0.59084 0.071506 
white 0.20122 -0.26278 0.46281 0.24717 -0.017591 0.28098 -0.22645 -0.25046 0.41046 0.2746 -0.034085 0.26749 -0.10145 0.20945 0.053034 -0.1922 0.26794 -0.23006 -0.089856 0.43412 0.5266 0.27163 -0.22702 -0.67774 -0.056066 -0.3284 0.0016921 -0.66225 -0.057846 0.31981 0.037585 -0.025684 0.066173 -0.0043055 0.25712 -0.18062 0.12201 -0.19035 -0.34032 0.020126 0.069764 -0.23503 0.4922 -0.4107 0.56357 -0.040139 0.37819 -0.1232 0.69761 -0.16114 0.057362 -0.10998 -0.49145 0.019265 -0.14862 -0.048405 0.14388 0.17014 0.15174 0.088233 -0.35101 0.3797 0.0079575 0.21382 0.091973 -0.5145 -0.24593 -0.31439 0.27864 0.12795 0.13874 -0.3659 -0.13801 0.54948 0.12779 -0.37944 -0.01698 0.23022 0.23607 0.48881 -0.5057 -0.16743 -0.14041 -0.28407 -0.088041 0.11117 0.017462 -0.56555 0.201 -0.39154 0.10515 -0.12623 -0.35078 0.16909 -0.30669 -0.51082 -0.50768 0.33034 0.15024 -0.023483 -0.1455 0.14236 0.040452 0.45613 -0.24112 0.57979 -0.35076 0.17311 0.51825 -0.23188 -0.23567 -0.11641 -0.1356 -0.014028 0.1709 0.023413 0.0069973 -0.28663 0.43887 0.21819 -0.20643 0.1255 0.27212 0.02292 0.033778 -0.56575 0.6789 0.25309 0.0052402 0.26798 -0.033274 -0.48743 0.0075961 -0.41926 -0.13582 0.32896 0.031268 -0.17529 0.18305 0.1641 -0.25498 0.017999 0.18652 0.17834 0.13954 0.18538 -0.071504 0.13886 -0.067053 0.25841 -0.32515 -0.3692 -0.17639 -0.014424 0.29543 -0.25639 -0.052991 -0.079632 0.13635 -0.26299 -0.11822 -0.06035 0.012126 0.11071 -0.12793 0.47255 0.2164 0.088697 -0.17777 0.107 0.18001 -0.22306 0.14366 -0.35847 -0.0085223 0.045895 0.57054 0.016463 0.33672 -0.14496 0.024951 0.4291 0.17395 -0.0016503 -0.27341 -0.17979 -0.36879 -0.12783 -0.0061008 -0.21615 0.39032 -0.048515 -0.13054 0.30473 0.073148 0.10776 -0.22492 0.13613 -0.023385 -0.39211 0.13691 0.16748 -0.014838 -0.24679 -0.068442 -0.094271 0.040967 -0.32935 0.13271 0.04568 -0.088597 -0.46731 -0.014197 -0.28108 -0.11048 0.19145 -0.34467 0.45527 -0.059453 -0.2486 0.24693 0.19128 0.0076218 0.29839 -0.14543 -0.065863 -0.09409 -0.11721 -0.30565 0.2815 0.073798 0.0014444 0.19064 0.36572 0.020264 0.059321 0.084109 0.14556 0.23478 0.22685 0.11821 -0.20694 0.10364 0.092676 -0.21102 -0.1648 0.068898 -0.56078 -0.40355 0.21967 0.35114 0.13731 -0.60706 0.0818 0.44616 -0.061653 -0.086208 0.539 0.029857 0.13222 -0.088833 -0.26487 -0.052091 0.44954 -0.10154 -0.148 0.26039 0.004089 -0.18421 -0.49004 -0.085692 0.2144 -0.20228 -0.06459 0.076681 -0.05172 -0.091974 -0.4221 0.23647 -0.034813 0.0255 0.33772 0.13326 -0.18754 -0.13515 -0.45059 0.3208 0.14721 -0.16448 0.40628 0.084098 -0.33189 0.35427 -0.28726 0.33801 -0.36216 -0.40918 -0.13296 -0.044277 0.10469 
yellow -0.012562 -0.52989 -0.31681 0.085494 0.24422 0.5143 -0.025301 0.31568 0.10598 0.03765 -0.12302 0.048284 -0.21562 0.21048 -0.26956 -0.20278 -0.53003 0.01462 0.42246 0.039252 0.66389 0.0016415 -0.16408 -0.30399 -0.30449 -0.47513 0.10448 -0.66545 0.20225 0.026635 0.058353 0.32854 -0.1457 -0.21563 0.041479 -0.39247 -0.031668 -0.0074458 -0.51709 0.54295 0.12913 -0.3326 0.56169 -0.42938 0.20689 -0.089428 -0.030138 -0.1195 0.21115 -0.2084 -0.06136 -0.25894 -0.010895 -0.35772 -0.43492 -0.030173 0.60143 0.32702 -0.11774 -0.46005 -0.58017 0.38265 -0.084129 0.10141 -0.45804 -0.040925 -0.40089 -0.51727 0.12517 0.15839 -0.27097 -0.40448 0.056754 -0.15372 0.38986 -0.43862 -0.14328 0.3818 0.025695 0.16691 -0.066043 -0.33287 -0.36637 0.00055259 0.18025 0.076208 0.20103 -0.3763 0.16101 -0.17249 0.40494 -0.24223 0.17961 0.036923 -0.16298 -0.2246 0.16603 0.086878 0.16053 -0.047433 -0.10874 -0.3971 0.22553 0.15808 0.11726 0.57321 -0.21902 0.045737 -0.11076 0.29867 -0.049825 0.35396 -0.36604 0.23107 -0.31109 -0.29136 0.22385 0.098671 0.18489 -0.051115 0.18783 0.42828 0.22784 -0.081368 0.15484 -0.22868 0.50067 0.3072 0.27696 0.17268 -0.089921 -0.69155 0.28441 0.029535 -0.25353 0.13493 0.1175 -0.31435 -0.31095 -0.15007 -0.42207 0.045875 0.22873 0.076363 0.25082 0.46383 -0.10854 0.14508 -0.24512 -0.19289 -0.46891 0.2022 0.25966 0.18277 0.38493 0.051253 -0.082038 0.096441 0.094422 -0.14152 -0.21761 0.23267 0.081362 0.14657 0.1952 0.019897 0.17821 0.022926 0.056671 -0.10326 0.014247 -0.098859 0.0096 -0.27878 0.22522 0.22118 0.079321 -0.64538 -0.27222 0.14495 -0.089234 0.23026 0.042898 0.04548 -0.21589 -0.12165 -0.3414 0.25076 0.49749 -0.2874 0.036791 0.039291 0.47457 -0.1261 0.33944 -0.3231 -0.61995 0.43127 -0.375 -0.15791 0.082402 0.16586 -0.19974 -0.61043 -0.12479 0.08297 0.19101 -0.35669 -0.03264 -0.021826 -0.11058 -0.20831 0.26366 0.026156 -0.25781 -0.16693 -0.49267 -0.11647 -0.076286 0.027579 -0.020286 0.18297 -0.27066 0.017916 -0.22771 0.09082 0.013576 -0.37597 -0.082635 0.47138 0.099649 0.46033 -0.68107 0.71065 -0.17762 -0.0070105 0.067088 -0.32586 0.2712 0.18224 0.068146 -0.36139 -0.38406 0.2132 0.046851 0.16911 0.15103 -0.24568 -0.30785 0.38931 0.10929 0.3478 -0.41598 -0.30043 0.31422 -0.2048 -0.021594 0.58116 0.096444 -0.0086853 -0.13897 0.21057 -0.19549 0.31396 -0.078467 0.11384 0.15118 -0.082134 -0.056063 -0.36919 -0.14338 0.04652 -0.25171 -0.35254 -0.066226 -0.16939 0.065579 -0.41724 0.30744 -0.24576 -0.12116 0.10573 0.044083 -0.30823 0.49558 -0.00036473 0.12493 0.12757 0.042834 -0.083721 0.071992 -0.38934 0.0051277 0.091591 0.69863 -0.45676 -0.40923 0.22785 -0.2771 0.045397 
abstract 0.1761 -0.16022 0.19009 -0.817 0.16403 -0.17428 -0.079199 -0.041418 -0.067987 -0.12065 0.030854 -0.0037886 0.17106 0.30685 -0.43959 -0.042163 -0.33381 -0.077475 -0.32131 0.22811 0.07062 -0.23494 -0.34475 -0.19146 0.095959 -0.36508 0.28258 0.1254 -0.36144 0.66009 0.15222 0.23063 -0.050533 0.50424 0.21802 -0.14166 0.46267 -0.23103 0.49019 -0.54396 -0.26664 -0.11394 0.32243 -0.48555 -0.084214 -0.14497 -0.29234 0.21677 0.18582 0.23096 0.29669 0.091467 -0.40345 0.02827 0.083595 0.58923 0.68993 0.096511 0.33188 0.39299 -0.62573 0.24774 0.17554 0.11231 -0.02482 0.34967 -0.31576 0.24417 0.15548 0.27939 -0.13424 -0.14003 0.059868 0.22017 -0.023789 -0.142 -0.2104 0.22027 0.31836 -0.20253 -0.20373 -0.58593 0.30253 -0.59744 -0.54751 0.23216 -0.16637 0.13545 0.1884 -0.38596 0.037891 0.11852 -0.043613 -0.11095 -0.17147 -0.13421 -0.56801 0.2393 -0.13231 -0.10449 0.89534 0.045533 0.40521 0.18288 -0.40971 -0.25051 0.45404 -0.36474 0.0043425 -0.22359 -0.10723 0.080787 0.046355 0.16267 0.060659 0.044097 -0.016683 -0.26857 0.088513 0.44229 -0.34315 0.4505 -0.034083 0.19906 -0.21511 -0.14717 0.21748 0.046807 0.15038 0.53009 -0.27106 -0.085983 -0.04039 -0.17708 0.33749 0.13006 -0.43613 -0.16371 -0.037491 -0.069214 0.070098 -0.28557 0.25757 0.12646 -0.11114 -0.0027091 -0.24661 -0.24598 -0.014614 0.13378 -0.079985 -0.030907 -0.055657 -0.27515 0.24553 0.41055 -0.17471 0.33913 0.19888 0.0074215 0.12879 0.43553 0.13338 -0.16036 -0.20819 -0.057833 -0.27005 0.0065089 -0.38825 -0.0010302 -0.26008 0.4111 0.24405 0.14506 -0.38054 0.43341 0.12202 -0.19276 -0.1415 0.016203 -0.39403 -0.34444 -0.18193 0.22042 -0.18362 -0.016328 -0.3009 0.064341 -0.15748 0.44987 -0.0082007 -0.048452 -0.026718 0.19597 -0.32403 -0.47017 -0.60297 0.034629 -0.31846 -0.14558 0.4828 0.44521 0.1337 0.37627 -0.12571 0.11298 -0.16492 0.38315 -0.43933 0.1318 -0.12623 -0.07232 -0.28615 -0.29231 0.37995 0.2087 0.26955 -0.3193 0.35174 -0.050928 0.16573 0.16176 -0.64514 -0.17556 -0.10138 0.27506 -0.39148 0.090097 0.17582 0.12987 0.41487 0.38187 0.11803 -0.24173 -0.24611 0.29361 -0.51844 0.46672 -0.25582 -0.063223 0.18513 0.2255 -0.22855 0.066779 -0.25142 0.014465 -0.20842 0.12855 -0.012607 0.18496 -0.086526 0.33545 0.25959 0.055195 -0.21388 0.024278 -0.10676 -0.0049523 -0.49455 0.83373 0.075263 0.26697 -0.33577 0.20717 0.020795 0.018191 0.34119 -0.38463 0.41827 -0.07728 -0.039787 0.25572 -0.37402 0.048453 0.05694 0.14852 0.12181 -0.27669 -0.13912 -0.079738 0.24863 -0.026528 -0.00098945 0.072516 0.25503 -0.5787 0.065506 -0.25201 -0.16514 -0.0071888 0.13898 -0.13905 -0.09458 0.1235 0.31149 0.21456 -0.18325 -0.02114 0.34651 -0.17742 
actual 0.0095174 0.1167 0.43227 -0.02954 -0.11978 0.24251 0.16361 0.013806 -0.14126 0.20536 0.22955 0.21562 -0.033408 -0.16337 -0.39597 -0.091154 -0.1392 0.016677 -0.21073 -0.30142 0.099675 0.31563 -0.30413 -0.2273 -0.059913 -0.54029 -0.029531 0.13714 -0.16148 0.043844 -0.12169 0.043311 0.073988 0.23879 0.13023 0.054555 0.041793 -0.070674 0.046533 -0.23625 0.085836 0.19286 0.10462 0.20823 0.033874 0.07825 -0.10355 0.070425 0.098389 0.16168 -0.049932 -0.17922 0.07354 0.044517 0.22438 0.13782 0.25641 0.0025332 0.37661 0.14962 -0.26128 -0.076732 0.032779 0.056626 -0.10354 0.068001 -0.27679 0.14957 -0.021813 0.062968 0.032173 -0.32278 0.049191 0.081654 0.077479 -0.40366 -0.21653 -0.28403 -0.27755 -0.029001 0.24738 0.12416 -0.32104 0.43359 -0.17362 -0.017292 -0.073271 -0.27401 0.02311 -0.274 0.10533 0.078002 -0.0045031 0.036895 -0.18447 0.1337 -0.43976 0.41668 0.18186 0.0040648 0.23086 -0.085091 -0.036289 0.52133 -0.22245 0.066336 0.22335 0.057937 0.12665 -0.2003 0.10299 0.23267 0.2367 -0.094508 -0.019411 0.036762 0.017249 0.14025 0.01578 -0.075182 0.19582 -0.0033871 -0.16208 0.16259 -0.11565 -0.29939 -0.010639 0.20699 -0.02395 0.22124 -0.031386 -0.28055 -0.1089 -0.11052 -0.097541 0.083002 -0.12555 0.13075 0.035274 -0.022952 0.1447 0.21646 0.3046 0.44189 -0.1172 0.033127 -0.10369 -0.14599 -0.041782 -0.22537 -0.23313 -0.298 0.11031 0.1407 0.16479 0.25614 -0.38632 0.31096 -0.10261 0.18041 0.29796 -0.074776 0.13112 0.13746 -0.028112 0.091427 0.23337 -0.14891 -0.082047 -0.064592 -0.24642 -0.097388 0.18329 -0.0075034 0.0012897 0.34668 0.15418 0.12192 -0.022617 -0.056844 -0.15507 0.01444 -0.087679 0.074203 0.29977 -0.082664 0.006109 0.44499 -0.039151 0.08292 -0.061688 -0.049571 -0.08827 0.39608 -0.060212 -0.036364 -0.19583 -0.27625 -0.22668 -0.01596 0.3368 0.23742 -0.046451 0.17038 0.15286 -0.20372 -0.26191 0.1095 -0.10109 -0.23998 0.19821 -0.11822 0.2051 -0.036326 -0.0017174 -0.027582 -0.1085 -0.086842 0.018318 -0.19075 -0.053067 0.18984 0.16025 0.062186 0.084374 0.1614 -0.10603 0.16909 0.5081 0.12672 0.060326 -0.040615 0.11075 -0.27959 0.13652 -0.26937 -0.041738 0.057959 -0.28863 -0.28263 0.067854 0.21557 -0.1431 0.054431 0.1337 -0.45659 -0.018587 -0.21341 -0.16216 0.60894 0.091484 0.37925 0.0063536 -0.19154 -0.052965 -0.072431 0.18355 0.14388 0.15334 0.053224 -0.081398 -0.18138 -0.28499 0.44506 0.21748 0.1471 -0.11521 -0.15686 0.14832 0.14971 -0.28395 0.13515 0.06363 0.23741 0.038858 -0.069336 -0.145 -0.39625 0.25092 -0.1447 0.26373 -0.063593 0.090632 0.1263 -0.42397 0.094628 0.4135 0.16973 -0.032418 -0.16591 -0.28424 0.059431 -0.078515 0.36568 0.10314 0.39722 -0.32739 0.13388 -0.24448 -0.24463 
alloy -0.0011944 0.30235 0.46793 -0.14405 -0.11095 0.5246 -0.49957 -0.011291 0.43748 0.36561 0.80478 0.53541 -0.67987 -0.10184 -0.3847 -0.24207 -0.21227 0.35618 -0.46092 -0.42606 0.74957 0.64542 -0.061741 0.022698 -0.065208 -0.48405 0.15641 -0.50873 -0.10505 0.078712 -0.072621 0.43209 0.14464 0.44732 -0.16475 -0.21571 0.27115 -0.39537 -0.32003 -0.066056 -0.36348 -0.59804 0.08325 -0.34441 -0.30716 -0.081795 0.42174 -0.27376 -0.03236 0.11565 0.1318 0.16988 -0.06937 -0.24917 0.31383 0.013702 0.23839 0.35201 -0.032364 -0.48646 -0.80356 0.30798 -0.30186 -0.01418 -0.42177 0.25209 -0.78483 0.51532 0.75959 -0.029697 -0.15065 -0.34072 0.32852 -0.26374 -0.48035 -0.048669 -0.29554 0.18419 -0.08817 0.25486 -0.42351 -0.071688 -0.031164 -0.4319 -0.16999 -0.10366 -0.3706 -0.13444 -0.38797 -0.13078 0.13914 -0.22194 0.42113 -0.022392 -0.15761 -0.51683 -0.73 0.63444 0.276 0.25265 0.42699 -0.15294 0.20054 0.10557 -0.27007 0.28303 -0.17742 0.18213 -0.227 -0.6715 -0.38377 -0.21342 0.060444 -0.061887 -0.093514 -0.042342 0.33023 0.099682 0.10222 0.11987 0.041546 0.091861 -0.035416 -0.067808 0.36229 -0.11056 -0.022363 0.33469 -0.1811 0.19712 -0.51495 0.38331 0.11193 0.12236 -0.2198 0.14452 -0.47993 -0.019856 -0.06209 0.12349 -0.45193 -0.155 0.39088 0.50803 0.5684 0.027436 0.021426 0.317 -0.46305 0.04202 0.41079 -0.20229 0.37285 -0.68893 -0.48543 -0.19586 -0.34957 0.17771 0.10099 0.19688 0.017135 -0.33466 -0.17049 0.025644 -0.24369 -0.043011 0.038441 -0.40282 0.35152 0.61541 0.18506 -0.18568 0.23077 0.086125 -0.22511 -0.067551 0.065043 -0.010069 -0.40288 0.11375 -0.37371 0.13505 0.0028386 0.14536 -0.053038 0.010377 -0.39492 -0.25891 -0.23485 0.086108 -0.22992 0.10927 0.0059975 -0.18179 -0.089482 -0.57633 -0.39526 -0.24628 -0.47209 0.19625 0.54463 -0.0018091 0.4507 -0.034084 0.37908 -0.017031 -0.25853 0.04938 0.29712 0.10329 0.24487 0.24743 0.38051 -0.22644 -0.15637 0.0035237 -0.11651 0.1312 0.66542 0.034994 0.29849 -0.17714 0.36849 0.28943 -0.63251 0.19562 -0.52324 -0.0020107 -0.65217 0.019514 0.54269 0.12075 0.0089893 0.43203 0.14111 -0.36087 -0.050771 0.11867 -0.27944 -0.5541 0.021785 0.54356 0.0044551 0.0030062 0.262 0.46014 -0.26054 -0.23851 -0.1727 0.082414 0.022762 0.070733 -0.017207 -0.12772 0.17021 -0.31123 0.1584 -0.12261 -0.096297 0.32835 0.51907 -0.33343 0.042805 0.3213 -0.41372 0.069255 0.66234 0.0086377 0.037071 -0.12921 0.089887 0.035991 -0.030839 -0.27132 -0.057614 -0.1151 -0.019203 -0.46895 0.30608 0.12943 0.37944 0.4147 0.20164 0.46805 -0.24942 0.11054 -0.084325 -0.19765 0.21873 -0.49668 0.025503 -0.0035964 -0.47134 -0.21593 0.43557 -0.12859 -0.11514 0.26607 -0.40128 0.02349 
architecture 0.38229 0.0064029 0.058409 -0.58286 0.30725 0.20933 -0.29492 -0.39363 0.35161 -0.3858 -0.036989 -0.15499 0.16996 0.19814 -0.65031 0.41391 0.045247 0.25632 -0.62577 -0.73298 0.55282 -0.03197 0.020186 -0.36975 0.041755 -0.062051 0.1662 0.066091 -0.11676 0.51048 -0.0098899 0.024189 0.36004 0.047893 -0.020484 -0.11084 -0.094585 0.42253 -0.35874 -0.45283 -0.017129 -0.1327 0.54161 0.083047 0.30698 -0.58076 -0.072851 -0.27551 -0.046379 -0.14595 -0.010189 -0.16413 -0.13461 -0.013826 0.26262 -0.08461 0.49298 0.11444 -0.14584 0.28091 -0.55394 0.28229 0.0071189 0.11117 -0.27264 0.15272 -0.14381 0.4479 0.23572 -0.16041 0.037741 -0.16223 -0.23944 0.38129 -0.13766 0.20266 0.19742 0.16177 0.32163 -0.29035 0.10053 -0.50072 0.54549 -0.17476 -0.37884 0.30879 -0.043103 0.037274 0.12921 -0.97134 0.27845 0.28394 0.24331 0.13758 -0.073047 -0.15676 -0.36706 0.090129 0.11927 -0.13539 0.52816 -0.55122 0.10057 -0.10972 -0.30226 0.11024 -0.043445 -0.38644 0.43871 0.5027 -0.32226 -0.0067059 0.20451 -0.20929 0.32201 -0.065887 0.43522 -0.14257 -0.086264 0.19665 -0.27524 0.16174 -0.19544 0.32566 -0.39479 -0.26986 0.19883 -0.4735 -0.12697 -0.0042258 -0.12111 -0.0019299 -0.4418 0.1144 0.13955 0.14432 -0.58858 -0.45573 -0.05459 -0.15017 -0.28474 -0.045119 0.21365 0.16137 0.24396 -0.20664 -0.016573 -0.57671 -0.17579 -0.042893 0.17424 -0.38532 0.45546 -0.41571 0.20309 0.045888 0.011914 0.064457 -0.17872 0.21672 -0.16466 0.18362 -0.083654 -0.30248 -0.18292 0.69069 0.063959 0.04233 -0.2298 0.31599 0.23845 0.19091 0.33793 0.025022 -0.20157 0.17739 -0.020342 0.4158 -0.22284 0.26129 -0.072593 0.35775 -0.0048262 0.30523 -0.16643 -0.064829 0.28019 0.015964 -0.39084 -0.35103 -0.22736 -0.26749 0.20058 0.018607 -0.3398 -0.14507 -0.05932 -0.37566 -0.16141 -0.45294 0.66876 -0.099312 0.43056 0.057573 -0.18215 -0.10149 0.08661 0.064602 -0.10842 0.33244 -0.14604 0.20983 0.32481 -0.59215 0.19226 0.056641 0.22639 0.083225 -0.040146 -0.48901 0.48891 0.060087 -0.81783 -0.22055 0.18468 -0.25481 -0.2607 -0.45132 -0.55067 0.38161 -0.034674 0.63076 0.2333 -0.28045 0.045373 0.21813 -0.55851 0.3632 -0.34602 -0.26796 0.1832 0.3505 0.56142 -0.22251 0.24067 -0.29798 -0.34695 0.073006 -0.30564 0.23303 0.088181 -0.172 0.09291 -0.12554 -0.38329 -0.015328 -0.14077 -0.0024219 -0.43399 0.34486 0.20639 -0.117 -0.019937 -0.13069 -0.48683 -0.035721 0.077671 -0.23282 -0.21959 -0.32736 0.10156 0.38632 0.11915 -0.11058 0.42673 -0.19541 -0.37045 -0.10596 0.081876 -0.39612 0.029894 0.046177 0.16233 -0.26879 -0.44555 0.25133 0.07663 0.047003 -0.53037 -0.26398 -0.41541 0.013516 0.26216 0.2237 -0.20876 0.08238 -0.11698 0.29341 0.48291 0.23439 
autumn 0.14616 0.23999 0.056047 0.20367 -0.14051 -0.0193 -0.05537 0.18729 0.26795 0.11581 -0.16075 -0.16319 0.039364 0.17634 -0.046609 -0.006649 -0.27874 -0.12158 -0.39068 0.2042 0.56688 -0.14912 0.56807 0.021168 0.11469 0.088636 -0.27103 -0.29132 -0.43177 0.22931 0.56327 -0.19416 0.25913 -0.13446 -0.094795 -0.57371 -0.11601 0.39346 -0.26329 0.34834 -0.097507 0.091637 -0.096336 -0.33241 0.5335 0.17691 0.077661 -0.075706 -0.16558 0.20012 -0.2013 0.21373 0.036239 -0.47794 -0.31022 -0.5047 -0.1961 0.30725 -0.29679 0.13779 -0.53493 -0.12323 0.20067 0.35152 0.24761 -0.20706 -0.20262 -0.13673 -0.15988 0.2722 -0.099199 -0.041789 -0.17036 -0.18671 -0.043079 -0.71354 -0.27149 0.22308 -0.090286 0.1143 0.13011 -0.080395 -0.27756 -0.63528 0.33033 0.2552 0.31955 -0.12784 0.19043 -0.69739 0.18518 -0.15989 0.066437 -0.45849 -0.10768 0.14664 -0.28523 -0.34564 0.093331 0.4482 0.06654 -0.06807 -0.1157 0.29109 0.099721 0.14689 -0.0367 -0.17242 -0.13711 0.26323 -0.50906 -0.064921 0.045346 -0.42914 -0.071955 -0.33139 0.10243 -0.053068 0.43761 0.2072 0.24017 -0.16245 -0.38298 0.054767 0.17251 0.1706 -0.081151 0.64749 0.34907 0.25008 -0.14572 -0.36079 0.023916 0.18438 -0.19559 0.018011 -0.36072 -0.11535 -0.074046 -0.19663 -0.26517 0.39149 0.33967 0.35497 -0.085251 -0.24589 0.048517 0.20864 -0.39211 0.026206 -0.23727 -0.13537 0.18747 0.11313 -0.14599 0.16473 -0.10785 0.32497 0.24744 0.31696 0.32793 0.22321 -0.24443 -0.10079 -0.019511 -0.010477 -0.081768 -0.46878 0.41196 -0.042187 -0.1851 0.43395 0.13464 0.13433 0.1287 0.22095 0.33398 0.01705 -0.32934 -0.59891 -0.27697 0.24619 -0.058934 -0.044276 0.031279 -0.004227 0.11901 -0.077965 -0.23556 -0.19703 0.12399 0.044377 0.51409 -0.23285 -0.14086 0.10967 -0.63082 0.044448 -0.21884 -0.51206 0.071476 0.065434 0.20101 0.16221 0.21175 -0.012617 0.39912 -0.24593 -0.50806 -0.44473 0.05707 0.059238 0.040063 0.30217 -0.16094 0.058572 0.25357 -0.37589 -0.18886 0.22332 0.11596 0.1841 0.18226 0.38008 0.0062678 0.1879 -0.53992 -0.25301 0.2899 0.39488 -0.34807 0.88818 -0.53634 -0.2322 -0.033051 0.26967 -0.32866 -0.19743 0.096755 -0.32931 0.29757 -0.18649 -0.40853 -0.17331 -0.044288 0.22594 -0.21467 -0.099946 0.21651 0.33496 0.012463 0.30203 -0.076334 0.4322 -0.13181 -0.095426 0.048497 0.3895 0.025955 0.23143 -0.016025 -0.16284 0.047054 0.15439 0.13277 -0.41731 -0.038538 -0.021106 0.20018 -0.069722 -0.49949 0.14627 -0.044146 -0.1353 0.50253 -0.024793 0.068752 -0.037743 0.38562 0.035361 -0.19979 0.14993 -0.17972 -0.3331 0.090758 0.052294 0.16165 0.061466 -0.028276 -0.15768 0.19456 -0.27949 0.56688 0.73441 0.11849 0.091241 -0.42148 -0.062067 -0.28652 -0.23821 
average -0.028337 -0.0029063 0.1733 -0.70226 0.61633 0.049089 0.015548 -0.24602 0.73895 0.33499 0.41843 0.64412 -0.19851 -0.11781 -0.18182 0.074654 -0.43835 0.085768 -0.13277 -0.13067 1.3029 -0.011405 -0.17545 0.20201 0.42293 -0.061507 0.24801 -0.012786 -0.025349 -0.12582 0.0031224 0.011554 -0.17504 0.42339 -0.053181 -0.3358 -0.55416 -0.12656 -0.18856 0.44063 -0.20187 -0.14393 -0.021748 -0.011045 -0.48575 0.093208 -0.098381 0.20714 0.22026 -0.32189 -0.23352 -0.44283 0.26262 -0.13568 0.52016 0.11304 0.39912 -0.36384 0.32328 0.23568 -0.41123 0.29424 -0.51611 0.058872 -0.018445 -0.1176 -0.48593 -0.0086117 -0.31272 -0.032626 -0.27057 -0.17156 -0.54723 0.49779 0.19423 -0.21172 0.076811 0.18228 -0.10358 0.022489 -0.0097507 0.22684 -0.39544 0.57848 0.082729 0.33499 0.25236 -0.66929 0.085869 -0.62459 -0.50786 0.098651 0.2759 0.043593 0.20928 -0.42719 -0.076239 0.56633 0.57269 0.61668 0.37892 -0.35731 0.0027877 -0.023813 -0.025745 0.68331 -0.23713 0.13805 -0.13968 0.057546 -0.40509 -0.022271 -0.12961 0.19162 0.029678 -0.25698 0.066447 0.45523 0.17259 -0.33942 -0.011834 -0.0062731 -0.59043 0.24243 -0.20247 -0.39111 0.052254 0.59754 0.23551 -0.021028 -0.058201 0.22416 0.064732 -0.7595 -0.10772 -0.15406 0.31516 0.029211 0.033319 -0.36441 0.15051 0.31256 0.35024 -0.012632 -0.3573 -0.044409 0.24738 0.13931 -0.18451 0.11605 -0.091564 -0.33563 0.12502 0.30698 0.096328 -0.40161 -0.33343 0.63529 -0.037429 0.24904 0.0035399 0.18382 0.24049 -0.27519 0.11188 0.11761 0.5679 -0.0086726 -0.22731 0.046305 0.07452 0.022067 0.077876 0.19741 -0.35741 0.085187 0.095235 0.0084387 -0.2445 -0.19789 -0.67431 0.17265 0.14356 0.23218 0.058551 -0.26511 -0.46664 0.2716 -0.0095148 0.0088713 -0.084958 -0.039366 0.26498 0.11888 0.065037 -0.70113 -0.41187 -0.24645 -0.016979 -0.41095 -0.15922 -0.029948 0.051544 0.3495 0.24443 -0.036449 -0.22634 -0.52562 0.15939 -0.63594 -0.35865 -0.11407 0.41041 -0.122 -0.15749 0.13371 -0.060929 -0.018764 0.19931 0.093466 0.0020918 0.011491 -0.27836 0.10684 -0.060938 0.28479 0.22066 0.22633 0.14164 -0.12781 -0.076446 -0.55054 -0.39585 0.59692 0.28123 0.10093 -0.26071 -0.59136 0.47834 -0.296 0.43945 0.2227 -0.18336 -0.22135 -0.17904 -0.10105 -0.31662 -0.032358 -0.047316 0.062895 0.51477 -0.12773 0.017525 -0.19027 0.2999 -0.37904 -0.35254 -0.32153 0.2891 0.17152 0.78037 0.18972 -0.010898 0.39486 0.3232 0.36472 -0.13938 -0.79387 0.29185 0.14814 -0.37073 0.5251 0.40279 0.070852 0.089878 -0.31644 0.044382 -0.18659 -0.0091234 -0.24812 0.079681 0.079778 -0.37625 -0.016895 -0.27185 0.31709 0.23395 0.44899 -0.43729 -0.23028 0.37693 -0.34328 -0.10004 0.076685 -0.25206 -0.10955 0.0089341 -0.49917 0.063377 0.13923 
batik -0.10822 0.3561 -0.30526 -0.40589 0.12782 0.14087 -0.001453 0.13002 0.22567 0.27693 0.49662 0.45363 0.2833 0.058649 -0.28944 -0.19844 -0.1888 0.38667 -0.56288 0.42346 0.34707 0.50398 -0.11564 -0.49501 -0.14394 -0.10657 0.41421 -0.084179 -0.24144 0.29283 -0.097764 -0.14168 -0.095133 0.58538 0.16645 -0.15797 -0.17592 -0.67487 0.28667 -0.098204 -0.33662 -0.067498 0.16192 -0.29074 -0.094217 0.19817 0.16407 0.10683 -0.23256 -0.086141 -0.088127 0.16593 -0.50063 0.033897 -0.36219 0.1893 0.54068 0.59533 0.22277 0.10481 -0.64411 0.16241 -0.18584 -0.11147 0.34904 -0.10718 -0.74068 0.37939 -0.0048343 -0.29392 -0.1508 -0.22437 -0.35884 -0.30436 0.15292 -0.22455 -0.20722 0.37456 -0.12956 -0.061599 -0.28923 -0.4927 0.3617 0.11007 -0.49409 0.016182 -0.43586 0.21912 -0.16576 -0.67875 -0.15564 -0.032032 -0.35747 -0.058259 0.00070343 -0.040643 -0.2767 -0.031351 -0.060826 -0.0164 0.9357 -0.14829 -0.019459 -0.025678 0.21594 0.24467 -0.045269 -0.037807 -0.21362 0.29135 -0.080599 -0.4842 -0.040608 -0.36784 -0.11118 0.071355 -0.15688 0.2788 0.2755 -0.068726 -0.16575 0.17236 0.13619 0.13802 -0.1475 -0.10717 0.43276 -0.12805 -0.4925 0.14168 0.00041857 -0.35626 -0.26602 0.32338 0.037355 0.32957 -0.084369 -0.11147 -0.067713 0.36572 -0.57183 -0.17085 0.4573 -0.027977 -0.15671 -0.079066 -0.095318 -0.077461 -0.25803 -0.15819 0.053971 0.20387 0.028121 -0.3738 0.14064 0.04201 -0.18172 0.25042 0.34727 0.54032 -0.66278 -0.07585 0.12727 0.11301 0.070692 -0.21505 0.093759 0.21689 -0.056611 0.58431 0.057357 -0.101 -0.18116 -0.088727 -0.058529 0.37087 -0.58497 0.02359 -0.15541 -0.27969 -0.65309 0.24029 0.062703 0.46232 -0.090509 -0.38316 -0.066008 0.10281 0.13232 -0.1951 0.24265 -0.12901 0.20967 0.28534 -0.34831 -0.30845 -0.62107 -0.33297 -0.61948 -0.23507 -0.055187 0.074889 0.48626 0.19614 -0.33428 -0.050707 0.33924 -0.19546 0.16773 0.010039 -0.052966 -0.1293 0.0045359 0.2301 0.3887 0.063282 0.099131 -0.024223 -0.36835 0.20101 0.081204 -0.23306 -0.054618 0.41743 0.25139 0.1626 0.012442 -0.10554 -0.34778 -0.059046 0.21581 0.099654 0.18974 -0.24576 -0.22296 -0.37972 -0.044199 0.13613 -0.22497 -0.00034421 0.43003 0.035016 0.24032 0.31938 0.40633 -0.054727 0.021673 -0.1397 -0.17095 0.038042 -0.0046885 -0.35964 0.010047 -0.31039 -0.46829 0.13062 -0.32045 0.32179 -0.44546 0.41673 0.10338 -0.22543 -0.25565 0.021987 -0.37726 -0.10741 -0.12898 -0.11113 0.27922 -0.48227 -0.053269 -0.36041 -0.61935 -0.026045 -0.15383 -0.46982 -0.18046 0.001538 -0.14589 -0.10475 -0.14022 0.13548 0.036599 -0.16262 0.36464 -0.24965 0.073568 -0.16254 -0.093106 0.070659 -0.045118 0.021128 0.34967 -0.11668 0.49568 0.10419 -0.29675 0.28711 0.15727 -0.15754 
belt -0.46721 -0.11868 -0.39075 -0.27657 0.1517 0.76249 -0.050692 -0.024867 0.32445 -0.28565 0.26721 0.56394 -0.5721 0.5378 -0.37445 0.072687 0.617 0.25204 1.0056 -0.060132 0.006689 -0.19698 -0.5191 -0.2139 -0.31113 -0.80185 -0.24269 -0.66154 -0.083467 -0.11614 0.14796 0.13798 -0.2347 0.14904 0.10855 -0.061509 -0.10534 0.0089406 0.64935 0.15277 0.064085 -0.13891 0.62101 -0.3881 0.14421 -0.2472 0.10184 -0.26641 -0.058867 0.017516 0.65586 -0.33685 0.42516 0.36251 -0.14146 0.29153 0.092808 0.023354 -0.048507 -0.066303 0.31438 0.54565 0.4099 -0.41767 -0.41635 0.13543 -0.34623 0.31248 -0.22476 -0.096962 0.51271 -0.08388 -0.12996 -0.44195 -0.20511 0.48411 -0.35796 0.48139 0.067891 0.21845 0.040363 -0.3321 0.095267 -0.53238 -0.23538 0.13173 -0.11091 -0.22688 0.048719 -0.33444 -0.035125 0.013921 0.23665 0.042534 0.17701 -0.53727 -0.18543 0.13734 0.76334 0.48773 0.3268 -0.29488 -0.48148 -0.029947 0.2079 0.50183 -0.083893 0.19595 -0.6704 -0.092978 0.099221 0.16759 0.75075 0.10198 0.24348 -0.13854 0.11712 -0.57127 0.035921 0.1704 0.55475 0.18791 0.33481 -0.1206 -0.145 -0.1608 -0.40025 0.10274 -0.53025 -0.31975 0.19634 -0.48902 -0.24834 0.22886 0.32425 0.32068 0.045126 0.0086108 -0.070508 -0.13131 -0.1602 0.15286 0.21878 0.44314 -0.10357 0.050387 0.077201 -0.095237 0.11708 -0.16565 0.20128 -0.74831 0.66775 -0.16385 0.31738 -0.38546 -0.58107 0.21994 0.16825 0.38573 0.11395 0.043903 0.58376 0.20849 -0.2332 -0.10822 -0.11458 0.14648 0.36941 0.4368 -0.0035594 0.12942 0.58709 0.20144 0.52005 -0.18751 0.09354 -0.47577 -0.19449 -0.071721 -0.47261 -0.011068 0.18005 -0.12394 -0.5164 -0.15581 -0.66414 0.43709 0.54523 0.049979 -0.037771 0.3063 -0.043081 0.47822 -0.21911 0.11769 -0.70439 -0.061755 0.081616 -0.19694 0.12698 0.30205 0.12008 0.11978 -0.53981 0.35698 0.11808 -0.033448 -0.041044 -0.35117 0.003598 -0.3278 -0.18275 -0.33242 0.63921 -0.039521 -0.082804 -0.35614 0.15027 0.16194 0.2885 -0.096355 0.10045 0.23439 -0.37332 -0.15458 -0.44321 -0.030902 -0.20761 0.44823 -0.27031 0.31247 0.037165 -0.051177 -0.35941 0.019438 0.34799 0.10762 -0.49076 -0.06444 0.36314 -0.11648 -0.44001 -0.6245 0.23279 -0.081921 -0.52066 -0.63653 0.020079 0.14218 0.0042363 0.009508 0.34554 -0.10577 -0.48497 0.19607 0.37336 0.3272 0.11651 0.21793 0.57983 -0.037619 0.39558 0.4722 -0.08307 0.61516 0.036495 0.39307 0.049403 -0.25336 0.17762 0.11599 0.0011572 -0.15153 0.56008 -0.33727 -0.20185 -0.13773 0.26304 0.29428 -0.12734 0.021652 -0.28278 0.44206 -0.44522 0.29224 0.03724 0.092973 -0.097083 0.021096 -0.081161 0.024146 0.049591 -0.5578 -0.034646 0.068167 -0.28849 -0.17398 -0.046372 0.34748 
big 0.28549 0.045362 0.18748 -0.049642 0.20032 0.035452 -0.26768 0.031719 0.16 -0.0073773 0.16285 0.13381 -0.19274 0.04649 -0.20528 -0.00046381 -0.15487 0.41106 0.13492 -0.35354 0.15544 -0.28603 -0.25488 0.20112 -0.19976 -0.30407 -0.24217 -0.36484 -0.048549 -0.12896 -0.004452 0.13285 -0.13208 0.26238 -0.15852 -0.1728 -0.0037454 0.26762 -0.050975 0.3059 0.13345 -0.13656 -0.072758 -0.12442 0.038149 -0.082775 -0.078826 -0.010485 -0.0031647 -0.034961 0.34418 0.26445 0.26841 0.45214 0.13502 0.44603 -0.032014 0.52527 -0.16932 -0.078023 -0.18197 0.50094 -0.19678 0.061399 -0.3094 0.32668 -0.24646 0.16671 -0.0017855 -0.35849 -0.48034 0.048647 -0.18521 -0.132 0.26452 0.11869 -0.30848 -0.091931 -0.12149 0.09275 0.18468 0.11114 -0.36699 -0.44598 0.37911 0.23625 -0.16918 -0.31462 -0.062237 -0.3082 -0.012481 0.21738 -0.169 -0.17674 0.20132 -0.045172 -0.31202 0.11122 0.10153 -0.065004 -0.12558 -0.062987 0.054671 -0.2837 0.028055 0.56626 -0.02284 -0.47157 0.29544 0.13839 -0.12623 -0.11669 -0.096734 0.049845 -0.52976 -0.060394 0.027448 -0.0061434 -0.26278 -0.17856 0.28168 -0.14876 0.18785 0.27081 -0.55478 -0.68102 -0.015444 0.15299 0.061831 -0.04933 0.077248 0.041596 -0.24874 0.26151 -0.1638 0.0045853 -0.49079 0.11878 0.079153 0.17707 0.013614 0.095577 0.062764 -0.083567 0.47752 0.017093 -0.28514 0.17155 0.29799 0.17984 -0.34747 -0.38755 -0.052836 -0.15581 0.27101 -0.3645 -0.4482 -0.018058 -0.082955 0.09078 0.11138 0.18111 0.21467 0.12449 -0.041341 -0.04153 -0.040509 -0.49989 -0.096429 0.0020416 -0.20285 0.090656 0.24416 -0.035728 0.046225 -0.60953 0.30071 0.057443 0.13083 -0.15354 -0.30728 0.038333 -0.17953 0.058816 0.17484 0.094962 0.018389 0.36549 0.57747 -0.054882 -0.13995 0.34633 0.0192 0.14774 0.026105 -0.083302 -0.24297 0.23422 0.18689 -0.34526 0.45896 0.038717 0.14645 -0.043966 0.42182 0.31096 0.0096823 -0.21792 0.2439 -0.24028 -0.22411 0.29678 -0.092874 -0.42082 0.24454 0.15214 0.53227 0.19059 0.055124 0.10647 -0.081829 -0.056737 0.24837 -2.3691e-05 0.040114 -0.17838 -0.286 0.16824 -0.089163 0.50726 0.29788 0.13783 -0.17351 -0.35929 0.1295 -0.2726 0.081797 -0.14858 -0.20961 0.23896 0.55053 -0.17982 -0.11445 0.16154 0.0208 -0.22568 0.043704 0.14122 -0.072953 0.11986 0.18632 0.32085 -0.037377 -0.11181 -0.2242 0.044509 0.1491 0.45854 -0.01045 0.16267 0.012662 0.243 0.30897 0.080243 0.22562 0.23464 0.011706 -0.18856 -0.068858 -0.046965 0.042928 -0.037655 -0.14573 0.014763 -0.063617 0.3002 0.19431 0.15713 0.50219 -0.049365 0.25496 -0.0010976 -0.13674 0.05989 -0.099826 0.15703 -0.095528 0.54637 -0.20251 0.16156 -0.16522 0.10858 0.29579 -0.20768 0.13674 -0.03163 -0.38385 0.1897 0.1439 -0.37978 
blurred -0.08511 0.13166 0.2048 -0.38188 0.35584 -0.16073 -0.082914 -0.30354 -0.22933 0.054241 -0.17693 0.018146 0.1064 -0.025214 0.035976 -0.12201 0.049994 -0.17387 0.19053 0.055985 0.23591 0.2785 -0.37349 -0.33966 -0.24085 -0.24161 0.050475 -0.26864 0.043417 0.47305 0.021654 -0.062242 -0.34746 0.56754 0.24649 -0.27719 0.040409 -0.41338 0.12095 0.085974 0.27408 -0.23041 0.377 0.018075 0.33073 0.33684 -0.56741 -0.03138 0.072292 -0.028971 0.27569 0.38928 -0.15844 -0.29191 -0.57407 0.31694 0.20435 0.42347 0.46197 0.042432 -0.52388 0.14502 -0.11671 0.51003 -0.47839 -0.045914 -0.24072 0.030421 0.081368 -0.18167 -0.10258 0.53451 -0.17204 -0.068509 -0.076467 -0.30253 0.094414 -0.13855 -0.35388 0.31792 -0.22831 0.031281 0.044333 -0.041516 -0.16953 0.0528 -0.014648 -0.10468 -0.03683 -0.39867 -0.022953 0.24374 -0.5547 0.11648 -0.29472 0.16286 -0.52355 0.46373 -0.054294 0.086899 0.63448 -0.26863 -0.096925 0.17744 -0.33444 0.23747 0.052445 -0.33684 -0.31841 -0.085431 0.14517 -0.084282 0.11233 -0.20535 -0.14762 -0.2104 0.12321 0.30403 -0.11957 -0.46351 -0.027277 0.11794 0.18212 -0.14546 -0.29261 -0.37062 -0.15085 0.19011 -0.28195 0.25741 -0.45063 -0.28656 0.23197 0.035057 -0.11479 0.17686 -0.28004 -0.34957 0.0073237 -0.25299 0.15522 0.28816 -0.018424 0.4211 -0.024831 -0.20564 -0.14609 -0.18945 -0.098682 0.00059195 -0.26053 -0.21774 0.33272 -0.033978 0.29858 0.070055 -0.32587 -0.057941 0.055451 -0.0085996 -0.32508 0.066307 0.020603 -0.027475 -0.19359 -0.055536 -0.36641 0.0519 -0.20499 -0.25995 0.13349 -0.28569 -0.025316 0.011587 -0.07065 0.052078 -0.031203 -0.018148 -0.040547 -0.015997 -0.11137 0.21383 -0.13571 -0.1903 0.1283 -0.34017 0.072733 0.19004 -0.078121 0.032442 0.076679 -0.039052 -0.0062443 -0.21273 0.10211 -0.42288 -0.24709 -0.33717 0.0079057 0.06128 0.031821 0.30831 -0.22577 0.28704 -0.11977 0.022246 -0.092149 -0.14598 0.04677 -0.11896 0.41659 0.063331 -0.13013 -0.1073 -0.17746 -0.044957 -0.012517 0.1088 0.21735 0.080283 0.21985 -0.030267 0.0041286 -0.13224 -0.19067 0.051113 -0.050662 -0.078828 -0.0163 0.026393 0.33731 0.39745 0.083151 -0.37177 -0.23979 -0.11044 0.16836 -0.22415 0.22951 0.034031 0.42233 0.30339 -0.2328 0.080249 0.15467 -0.18896 -0.058899 0.00012328 -0.080819 0.55238 -0.14314 0.45851 -0.028211 -0.15433 0.25581 -0.0091778 0.043331 0.25837 -0.040992 -0.036362 -0.22849 -0.079386 -0.43466 0.040456 0.31772 0.095836 0.10625 -0.13892 0.40658 -0.18616 -0.21026 0.20359 -0.2505 -0.27126 0.12113 0.16323 0.030463 -0.57319 0.57474 0.23669 0.059707 0.21478 -0.066204 -0.12342 -0.088602 -0.098605 -0.21591 0.2929 -0.08167 0.25823 -0.17947 -0.20249 -0.30826 0.12162 -0.25117 0.010293 -0.3261 -0.25001 -0.14336 -0.01809 
bookshelf 0.097423 0.18617 0.2068 -0.31429 -0.24659 0.046466 0.07706 0.051555 0.34847 -0.063318 0.0087203 0.36964 -0.12002 0.11813 -0.35237 -0.14127 0.0015439 -0.10605 -0.3378 -0.2284 0.091465 0.12821 -0.15065 -0.38129 -0.1906 -0.29868 0.25891 -0.086357 -0.017348 0.078692 -0.067424 -0.17041 0.049519 -0.0089656 0.2542 -0.23256 -0.042264 -0.13086 -5.1536e-05 0.11766 -0.068902 -0.055453 0.082561 -0.28251 0.011153 0.039235 -0.10927 0.10493 0.19079 -0.11786 -0.10164 -0.059896 0.045341 -0.0028571 -0.40465 0.090028 -0.11273 -0.093192 0.4284 -0.17132 -0.048123 0.14947 -0.17528 -0.10581 -0.10179 -0.08332 -0.12831 -0.019093 -0.039274 -0.23113 -0.11712 -0.061122 0.25066 0.16988 0.13779 -0.041346 -0.21169 -0.014337 0.011783 -0.029198 -0.2199 -0.099798 0.30604 0.01781 -0.15698 -0.092589 0.002762 0.21018 0.14033 -0.53746 -0.061397 0.15364 0.061771 -0.044665 0.23002 0.14568 -0.035969 0.12998 0.035319 0.49531 0.13855 -0.18222 0.35839 0.029479 -0.06167 0.18639 0.035508 -0.018471 -0.036117 0.1029 0.011882 -0.030727 0.033991 -0.11226 -0.084177 -0.23813 0.0080235 0.033561 -0.0070515 -0.19362 -0.46234 0.058663 0.021092 -0.064079 -0.0091164 -0.22863 -0.06738 0.20735 -0.13591 -0.13409 -0.11389 -0.089866 -0.32643 0.015989 -0.10911 0.16364 -0.22013 0.10608 0.073341 -0.011472 -0.20644 0.30231 0.060996 -0.0010145 0.20806 -0.0012088 -0.049223 -0.3645 -0.0063896 -0.035044 -0.13837 -0.12748 -0.093724 0.041824 0.010023 -0.045853 -0.013128 0.29022 0.043323 0.35347 0.16629 0.2088 -0.055117 0.13856 -0.17452 0.11271 -0.23914 -0.15707 0.16961 0.20416 -0.11926 0.22305 -0.16763 0.03362 -0.16597 0.09995 -0.035196 -0.084938 -0.34998 -0.26576 -0.72457 0.068494 -0.12133 0.058857 0.17535 -0.20164 -0.23501 0.15909 0.033978 -0.027776 -0.21652 -0.10823 0.09189 0.14861 0.13145 -0.43683 -0.1681 0.23925 -0.06196 -0.347 -0.0079522 -0.031889 0.1914 0.11895 -0.012723 0.24024 0.085893 -0.11205 -0.014359 0.16702 -0.015093 -0.094196 0.19227 -0.11189 0.0045267 -0.24728 0.082613 0.0015742 -0.32766 -0.088776 -0.01873 -0.0066287 0.044119 0.32698 -0.33425 0.047934 0.060835 -0.18313 0.0010058 0.37766 -0.031481 0.43285 -0.029894 -0.35197 0.081754 -0.23618 -0.076197 0.043705 -0.40527 -0.054744 0.1169 0.15558 0.095813 -0.057427 0.17752 -0.31836 -0.04865 -0.16194 -0.13354 -0.039277 -0.10389 0.036418 -0.17743 -0.1021 -0.18308 -0.17392 -0.28659 0.19897 -0.15633 0.043211 0.021201 0.18231 -0.12121 0.24249 -0.03178 -0.23241 -0.047544 -0.10073 -0.072801 -0.18289 0.16432 0.036208 0.048455 -0.057029 -0.065454 -0.14071 0.085596 0.056541 -0.010298 0.014467 0.16545 -0.24964 -0.050596 -0.14764 0.08307 -0.017658 -0.046533 0.08696 -0.29266 -0.24112 0.10687 -0.16294 0.023773 0.20449 0.18223 0.072052 -0.24591 0.20939 -0.17647 0.16207 
bracelet -0.17336 -0.13781 -0.48892 0.20813 0.33828 -0.2707 0.018037 0.085876 0.038822 -0.036625 -0.1167 0.24747 0.017109 0.093572 -0.11033 -0.017806 0.12497 0.22332 -0.28131 -0.11263 0.054036 0.32806 -0.48494 -0.23226 -0.46175 -0.353 0.49813 -0.34049 -0.27539 0.218 -0.036208 -0.083728 -0.10468 0.33347 -0.059403 -0.39489 -0.32459 0.29125 0.094956 0.19116 -0.34811 0.031525 0.13117 -0.44247 -0.23993 0.07281 -0.20744 -0.070238 0.13618 0.13114 0.43859 0.067326 -0.10762 -0.14769 -0.46234 -0.0011668 0.21048 0.022402 0.13045 -0.05282 -0.2719 0.10479 -0.23648 -0.36366 -0.23091 -0.17929 -0.48274 0.3008 0.2108 -0.15671 -0.092992 -0.13428 -0.19092 -0.40426 0.02129 -0.31123 -0.13605 0.04647 0.21351 0.10971 -0.44982 -0.066531 -0.18956 0.04874 -0.19063 0.01145 0.12209 -0.097615 0.038883 -0.40163 0.45098 -0.341 -0.19527 0.23364 0.16619 0.22951 -0.22834 0.26893 0.0067299 0.064342 -0.18438 -0.037182 0.047372 -0.052055 0.12125 -0.10155 -0.12475 -0.17562 -0.048185 0.022529 0.025286 -0.22865 0.085234 -0.26554 -0.32737 -0.17204 0.25306 0.033478 0.11417 -0.081402 -0.4427 0.061919 0.25926 0.14685 -0.11567 -0.34855 -0.31717 0.041731 0.072561 0.26761 -0.0037557 -0.45878 0.071377 0.16994 -0.0016335 0.42229 -0.028368 -0.054321 0.24522 0.02726 -0.43793 0.43716 0.21401 0.23184 0.22184 -0.00051607 0.15321 -0.34221 -0.3471 -0.13183 0.095688 -0.23069 -0.0088584 -0.31581 -0.10646 -0.11072 -0.41951 0.19555 0.37253 -0.048485 -0.060039 -0.26111 0.14134 0.15517 -0.012089 -0.30023 -0.054774 -0.035121 0.21147 0.19095 -0.29374 -0.16977 0.3534 0.21453 0.12134 0.34954 0.63853 0.050688 -0.43548 -0.35834 -0.43251 0.028085 0.033123 0.0020629 0.21381 0.069257 -0.27668 0.0074039 -0.1979 0.37911 0.30139 0.16765 0.26565 0.30275 0.31439 -0.3633 -0.086694 0.26957 -0.16688 -0.24624 -0.031776 -0.013765 0.0059938 -0.29654 0.0038068 0.27512 0.2171 -0.095312 -0.15138 0.24085 -0.23572 0.21309 0.36093 0.008247 -0.31459 0.16645 0.30456 -0.13442 -0.46084 0.12056 -0.018874 0.25927 -0.067804 0.1469 -0.23642 -0.47615 -0.40245 0.46646 -0.22662 0.29431 0.13261 0.57642 -0.2589 0.20682 -0.094773 0.040498 0.1595 0.16296 -0.22118 -0.33976 -0.13931 0.22573 -0.21622 -0.36693 0.01766 -0.18658 -0.10361 -0.28964 -0.24475 0.049761 0.050641 0.43524 -0.33742 -0.098624 0.40313 -0.23059 -0.030286 -0.16873 -0.14074 0.25375 0.26703 0.037324 -0.081766 -0.00037665 -0.079963 0.05832 0.16948 0.33117 -0.11037 -0.081393 0.090286 -0.053763 -0.16686 0.10912 0.19383 -0.14386 0.26071 -0.038358 0.18828 -0.24564 -0.10273 -0.28532 0.39144 -0.22799 -0.067844 -0.054 0.07496 -0.1434 0.19952 -0.061731 -0.49238 -0.069464 -0.010541 -0.1576 0.3115 0.42357 -0.16387 0.020033 0.13441 0.027567 
brick 0.093923 0.17248 0.054971 -0.62234 0.11812 -0.048278 0.14064 -0.021587 0.44257 -0.083203 0.17674 0.59984 0.054988 0.21395 -0.75352 0.34008 -0.12362 0.082079 0.047624 -0.20333 0.79319 0.028876 -0.29828 -0.30969 -0.072703 -0.19868 0.20641 -0.33445 -0.23037 0.28123 0.2029 0.17352 0.20594 0.11849 -0.061291 -0.43361 0.13765 0.16722 -0.1177 -0.42025 0.10411 -0.47098 0.27045 -0.34097 0.29657 0.022475 -0.31585 -0.27954 0.23595 -0.1724 0.095973 -0.014101 0.1313 -0.11449 -0.047584 0.17178 -0.16672 0.165 -0.13956 -0.17831 -0.47797 0.41471 -0.064907 0.044023 -0.91158 -0.093632 -0.22127 0.19873 0.19686 -0.33122 -0.16348 0.045179 -0.18728 -0.012194 0.24979 0.12059 -0.16824 0.53444 -0.21105 0.25061 -0.078739 0.11053 0.13367 -0.38948 0.068226 -0.065758 -0.16364 -0.42518 -0.012885 -0.24907 0.067981 -0.38325 0.41077 -0.17762 -0.0033674 -0.76162 0.013183 0.050256 0.095993 -0.13567 0.074277 -0.44968 0.45136 0.27402 0.348 0.36133 0.09433 0.22069 0.19519 0.29069 0.20987 -0.068523 0.61994 -0.39984 -0.068761 -0.37022 0.26613 0.19741 -0.21143 -0.26879 -0.20738 0.086616 -0.22796 0.15977 -0.1629 -0.76219 0.48446 0.0037499 -0.013681 0.02633 -0.31292 -0.14129 -0.030374 0.41239 0.24007 0.26464 -0.058675 0.12404 0.16716 -0.17367 0.10762 0.33805 0.14548 0.54884 0.64445 -0.51537 0.1619 0.089909 0.0017677 -0.011177 -0.38277 -0.50442 0.33707 -0.38277 -0.11405 -0.15033 0.016161 0.15024 0.49399 0.23861 -0.14747 -0.047034 -0.060455 0.040431 -0.6565 -0.095117 -0.40557 0.026599 0.29197 0.30562 -0.17016 -0.038796 0.30285 -0.15928 0.14291 -0.10819 0.0565 0.062338 0.2668 0.32678 -0.69506 0.29335 0.20814 -0.16591 -0.24943 0.09471 -0.18651 0.18663 0.11267 -0.5343 0.24493 0.42667 0.073286 0.1432 -0.084935 -0.011038 -0.11193 0.24736 -0.27513 0.20845 0.23199 -0.16695 0.20939 -0.43594 -0.045629 -0.015952 -0.21251 0.29434 -0.15678 0.15974 -0.25008 0.043308 -0.016118 -0.10789 0.27476 -0.1679 -0.16084 -0.013994 -0.25339 -0.3193 0.27818 -0.11774 -0.14537 0.23198 0.39647 -0.29625 -0.3827 0.046986 -0.28599 0.38825 0.19842 0.53719 -0.32624 -0.22511 0.26324 -0.40002 0.14686 -0.50958 -0.31901 -0.16026 -0.094995 -0.024523 0.31074 0.30499 0.25058 -0.33065 -0.13131 0.12563 -0.14582 0.067126 0.38724 0.061199 -0.41882 -0.056017 0.24953 -0.12622 -0.17205 0.087241 -0.59795 0.16445 0.12311 -0.040667 -0.14051 0.049755 -0.35065 -0.0024937 -0.10157 -0.27007 -0.17609 -0.49825 -0.44003 0.14161 -0.49581 -0.14019 0.048209 0.081922 -0.14235 -0.056944 0.37593 -0.16923 -0.35004 -0.065411 0.24367 -0.071743 -0.082637 0.11138 -0.094027 -0.18327 -0.21489 0.0058814 -0.085416 -0.30346 -0.23727 -0.01386 0.14777 -0.18933 -0.1618 0.42886 0.037169 -0.049715 
broken 0.19133 0.22831 0.20528 -0.077793 0.1307 -0.034969 -0.25801 0.15998 -0.26439 0.26787 -0.20781 -0.071734 0.34436 0.29253 -0.31625 -0.28612 -0.092568 -0.29003 -0.15812 -0.08127 0.52024 0.60182 -0.31378 0.049477 -0.20801 -0.069429 0.27228 -0.25203 -0.020469 0.088627 0.15097 0.073148 0.061991 -0.13023 0.19321 -0.11684 -0.086345 -0.10875 -0.27081 -0.31611 -0.50691 0.13734 0.14707 0.12198 0.0050569 0.19606 -0.020773 -0.069878 0.026078 0.21859 0.20408 -0.099864 -0.077654 -0.23386 -0.24206 0.30897 0.073499 0.11561 -0.1767 -0.27412 -0.35246 0.38172 0.01081 0.058975 -0.20617 -0.1039 -0.1931 -0.031209 -0.11564 -0.40523 -0.57095 0.091222 0.15184 -0.10271 0.19423 -0.32316 0.057877 0.021725 -0.37929 0.32883 -0.22251 0.077961 0.12082 -0.039822 -0.18842 -0.23164 0.036506 0.058738 0.022464 0.10415 -0.0952 0.086594 -0.056966 -0.1494 0.26946 0.15472 -0.27821 0.41809 -0.42443 0.54914 0.26224 0.092816 -0.29289 -0.12965 -0.068477 -0.10034 0.39193 -0.06071 -0.32583 0.081577 0.061599 -0.41592 -0.050246 -0.25372 -0.017447 0.12264 0.19028 0.27108 0.06198 -0.068189 -0.11408 0.16941 0.17551 -0.37099 -0.12448 -0.098278 0.18361 0.21546 0.0022808 0.15077 -0.1139 -0.057806 -0.097985 0.027257 0.010808 0.36306 -0.10757 0.1571 0.34363 0.00071487 -0.24169 0.16371 0.2758 -0.020813 0.51067 -0.71776 -0.24463 0.13831 0.06459 0.10616 -0.070023 -0.1253 0.46459 0.39205 -0.14213 -0.24151 -0.43894 -0.19809 -0.50521 0.3019 -0.10143 0.039858 0.076689 -0.18317 -0.3196 -0.10763 -0.23304 -0.16368 0.4897 0.032188 -0.13397 0.41008 0.24434 -0.024121 -0.46113 0.041949 0.12838 -0.10485 -0.12373 0.116 -0.0026699 -0.11599 0.45285 -0.038222 0.17249 0.0089164 0.105 -0.11918 0.092336 0.017595 0.18578 0.018499 0.16817 0.37157 0.19437 -0.039231 -0.27665 0.097805 -0.55867 -0.080844 0.14743 -0.12647 -0.03983 -0.33769 -0.057541 -0.093958 -0.32096 0.11161 -0.35254 -0.17421 -0.20216 0.19622 0.095282 0.066215 -0.24085 0.39502 0.13314 0.086782 0.15904 -0.29532 0.011637 0.37053 -0.11723 -0.1266 0.36375 -0.34615 0.052852 -0.2237 -0.28049 0.47732 0.28889 0.19215 -0.13276 -0.3066 -0.19864 -0.37024 0.13574 0.081598 -0.37899 -0.33389 0.153 0.43923 -0.32338 -0.08604 -0.19438 -0.19073 0.25711 -0.53527 0.10205 0.017796 0.15112 0.074004 0.041663 0.093696 0.20124 -0.28561 0.45951 0.20846 0.037675 0.55401 0.22942 -0.36528 -0.22536 0.35367 0.079014 0.0052347 0.030825 -0.1232 0.32689 -0.25189 -0.24847 -0.13402 -0.25231 -0.4264 -0.043058 0.14648 -0.31001 0.32343 0.29789 0.35783 -0.0018345 -0.14891 0.0068254 -0.079452 -0.26371 0.41486 -0.10167 -0.17603 -0.25194 -0.084739 0.029624 -0.089132 -0.025116 -0.11432 -0.34475 0.20331 -0.13487 -0.051602 -0.13882 -0.83519 
bronze 0.059177 0.089132 -0.13769 -0.116 -0.14945 0.21173 0.016575 0.017028 -0.085288 -0.035291 0.30518 0.21385 -0.76432 0.49198 -0.56711 -0.075629 -0.37817 0.33785 0.13607 0.2022 0.47364 0.55578 0.22875 -0.21804 0.55577 -0.48602 -0.11299 -0.25853 -0.24776 0.042936 0.14549 -0.1988 0.3116 0.13847 0.37562 -0.22706 0.12925 -0.0067679 -0.18709 0.042741 -0.051151 -0.022456 0.29321 -0.44463 0.21741 -0.45463 0.24763 -0.25939 -0.1377 0.13887 0.17631 -0.29482 -0.16976 0.097805 -0.039095 -0.52229 0.24062 0.5342 -0.2151 0.20517 -0.20666 0.18444 -0.6587 -0.26592 -0.57693 0.11524 -0.6379 0.383 0.65902 -0.12103 -0.23579 -0.3769 0.36552 -0.082639 -0.054058 0.25106 -0.082305 0.32135 0.19335 0.35562 -0.21753 -0.24888 0.12442 -0.58842 0.1483 0.22599 0.28986 -0.31453 -0.15301 -0.39893 0.57918 0.38397 -0.11066 0.28675 0.18768 -0.09218 -0.29136 0.00071065 -0.19475 -0.098185 0.18081 0.18944 -0.10166 0.14366 -0.29553 0.59883 0.20102 0.3357 -0.27795 -0.14031 -0.34646 -0.51088 0.52525 -0.48586 -0.51214 0.26152 0.28156 -0.17731 -0.33429 0.14086 -0.15239 0.38618 -0.040104 -0.21498 -0.49893 -0.030477 -0.79565 -0.46709 0.089431 0.51966 -0.32274 -0.34723 0.26898 0.26045 0.036018 0.38621 -0.05735 -0.23126 0.62107 0.1631 -0.87926 0.18323 0.29974 0.11965 0.50797 -0.38207 -0.26903 -0.43632 -0.96164 -0.20525 0.37592 0.21588 0.27891 -0.71995 -0.035737 -0.19159 0.0085182 0.12799 0.28566 0.38462 0.26472 -0.63146 0.058857 0.36785 -0.22775 -0.16488 0.27486 -0.31022 0.038783 0.58836 0.080345 -0.34533 -0.26176 0.064117 0.048259 -0.49413 0.471 -0.55309 -0.31393 -0.39809 0.058111 -0.29546 -0.0055683 -0.022282 0.111 -0.070877 -0.11375 -0.071447 -0.072699 -0.1661 -0.090939 0.28029 0.46947 0.39703 0.055623 -0.82367 -0.20433 -0.15303 -0.40125 -0.14031 0.54861 0.053187 0.23359 -0.09913 0.43628 0.071566 0.24402 0.13305 -0.089384 -0.059306 0.13111 0.20158 0.5586 -0.36563 0.16482 0.076626 0.17994 -0.030948 -0.15232 0.32829 0.49416 0.69052 0.12583 -0.054634 -0.23199 0.18107 -1.0171 0.57243 -0.45171 0.047017 0.044145 0.42897 -0.31938 -0.0055465 -0.10318 -0.15872 -0.053536 0.339 -0.00048462 -0.43075 -0.37884 0.55484 0.18223 0.01548 -0.11685 -0.13334 0.0070339 -0.057429 0.25342 0.14011 0.18598 -0.018233 -0.25729 -0.076669 -0.060747 -0.43001 -0.049359 0.2645 0.14881 0.11998 0.26871 -0.35542 0.21778 0.33192 -0.46883 -0.69293 -0.12763 -0.52079 0.19442 0.35824 -0.37278 -0.083503 -0.061604 -0.27135 0.5569 -0.34181 0.33059 -0.38079 0.31314 0.35116 0.099577 0.51241 0.039986 0.047596 -0.047992 -0.13087 0.0023341 0.18054 0.14673 -0.34027 -0.15793 -0.23965 0.045139 -0.43515 0.47007 0.23281 -0.022451 -0.10689 0.18501 0.21692 
carving 0.045552 0.5875 -0.11983 -0.15425 0.054971 -0.091058 -0.18249 -0.068077 -0.054479 0.13042 0.1578 0.1976 0.09703 0.13393 -0.22036 0.043406 -0.2405 -0.025552 -0.028367 -0.26882 0.64907 0.12631 -0.23882 -0.13943 -0.17865 -0.43997 0.18029 -0.35231 -0.13673 0.25516 0.051375 -0.29617 -0.04383 0.21835 -0.12087 -0.42628 -0.10386 -0.088491 -0.13355 -0.11904 -0.27791 0.21375 0.22035 0.11735 -0.14266 -0.1131 0.13706 0.021457 -0.012144 0.17038 -0.068607 0.020828 -0.070842 -0.29794 0.21539 -0.27801 0.39078 0.056004 0.21545 0.26526 -0.68409 0.55805 0.0014218 0.12612 -0.47361 0.13433 -0.62051 0.024602 0.53901 -0.43727 0.10274 -0.11327 0.019794 0.099117 0.15893 -0.28258 -0.26484 0.1997 0.12992 0.18218 -0.045095 -0.15765 0.36342 -0.13405 -0.056503 -0.012291 -0.058433 -0.28559 0.12191 -0.4735 0.20336 -0.020771 -0.36565 0.038856 -0.33236 -0.16668 -0.3323 -0.32912 0.042551 -0.47434 0.44679 -0.035274 -0.015921 0.2027 -0.32093 0.54798 0.07707 0.26012 -0.039833 0.3522 0.32161 -0.071782 0.23636 -0.51586 0.02454 -0.025811 0.10878 -0.13086 0.088499 -0.013089 -0.13502 -0.13088 -0.030116 0.025224 -0.5912 -0.20534 0.28437 -0.097644 -0.12071 0.14446 -0.1512 0.17054 0.0015876 0.43242 0.25728 0.080113 0.12817 -0.010363 0.29259 -0.23543 -0.075032 0.44275 0.032521 -0.11583 0.19165 -0.44717 -0.42164 -0.098449 -0.26246 -0.39426 0.016255 -0.15781 0.24066 -0.53702 -0.081578 -0.13289 -0.035436 0.32789 0.14026 0.49389 0.18895 -0.060883 -0.061518 -0.34139 -0.19758 -0.28163 -0.58188 0.2922 0.036082 0.50085 -0.22204 -0.11576 -0.22544 0.074234 0.011225 -0.086322 0.13448 -0.0091599 -0.13482 -0.73353 -0.29264 -0.0066174 -0.072949 0.12315 -0.24017 -0.40859 0.11379 -0.32193 0.026819 -0.04864 0.01922 0.33417 -0.019238 0.39963 -0.1242 -0.27623 0.04587 -0.0054371 -0.28873 -0.20694 0.15567 -0.19315 0.46267 -0.28178 -0.067576 -0.065483 -0.023406 0.25504 -0.18852 0.11092 -0.0058351 -0.31088 0.51236 -0.48422 0.34744 0.35411 -0.30199 -0.053847 -0.18151 -0.018538 0.10228 -0.1198 0.067644 0.33132 -0.027601 -0.21329 -0.39445 -0.33596 -0.0078804 0.2094 -0.13788 0.65328 -0.28949 0.13261 0.1695 -0.043985 -0.085455 0.097197 -0.11508 -0.16991 0.019771 -0.33867 0.033332 -0.15076 -0.31602 -0.042458 0.19335 -0.054614 -0.013678 -0.068089 0.066139 0.026258 -0.24056 -0.14764 0.23163 -0.68716 0.14899 0.52292 -0.15234 0.34008 0.23775 -0.45872 0.1164 0.22404 0.20556 -0.082022 0.30229 -0.32415 0.094217 -0.17436 -0.10217 0.031531 -0.26618 -0.28018 -0.23105 0.075405 0.19299 -0.32223 -0.048884 -0.1288 -0.10485 0.029662 -0.20366 0.2188 -0.16914 0.094741 0.019767 0.041002 0.16257 -0.038585 -0.2964 -0.48317 0.14059 -0.0090454 0.15776 0.091178 -0.10553 0.057136 0.2967 0.10317 
cement 0.086182 0.33363 -0.10802 0.017118 -0.14902 -0.21329 -0.1849 0.26563 0.66897 -0.02682 0.6055 0.44516 -0.12998 0.099831 -0.25367 -0.036989 0.11061 0.19468 -0.10218 -0.11465 0.3796 0.49954 -0.23224 -0.44515 -0.43785 -0.33321 0.24871 0.042533 0.22272 0.14726 0.24025 0.22137 0.15933 0.12387 -0.38558 -0.040606 0.028291 -0.10701 -0.25486 -0.29954 -0.28342 -0.53113 0.26647 -0.20591 0.058424 0.038338 -0.0043816 -0.29843 0.0511 -0.11951 0.45202 -0.24189 -0.35713 -0.29427 -0.012756 -0.035897 0.019372 0.15594 0.18814 -0.41762 -0.88994 0.32995 -0.16942 0.30246 -0.021573 -0.072238 -0.41225 0.10126 0.37712 -0.31806 0.12996 -0.16544 0.14255 -0.44803 -0.068405 -0.57359 -0.040742 0.51535 -0.16682 -0.015269 -0.53512 -0.1845 0.167 -0.35582 -0.33031 0.013476 0.36483 -0.037746 -0.076696 -0.27826 0.29276 0.072131 0.20982 0.017623 0.1201 -0.25756 -0.28226 -0.036001 -0.31242 0.31836 0.02814 -0.38674 0.47569 0.10288 -0.055395 0.049977 -0.27299 -0.34805 0.034142 0.050089 -0.032353 -0.099707 0.39191 -0.0095335 -0.10721 -0.17465 0.18336 0.056724 -0.14797 0.42865 -0.14267 0.32905 -0.0035339 0.10597 -0.26533 0.057781 0.18003 0.087783 0.31214 0.18049 0.014272 0.087013 0.31701 0.50713 -0.34945 0.47055 -0.31915 -0.018632 -0.30105 0.17118 -0.21961 -0.046548 0.63029 0.38814 0.50179 -0.53097 -0.059911 -0.26639 0.27354 0.15622 0.030936 -0.46277 0.40658 -0.2665 -0.19577 -0.11956 -0.20012 0.51361 0.11322 0.47632 0.003943 0.20759 0.08149 -0.22023 -0.43542 -0.05647 -0.64219 -0.36045 -0.07295 -0.11253 -0.53387 -0.081889 0.27998 -0.21512 0.028118 0.39648 0.064971 -0.31127 -0.21321 0.25864 -0.0095127 0.013449 -0.040359 -0.14912 -0.16493 0.011053 -0.41309 -0.15913 -0.12894 0.093117 -0.1821 0.50883 0.060049 0.077429 0.033533 -0.18927 -0.031462 0.042981 -0.47499 -0.054824 0.2841 -0.067581 0.27942 -0.20099 0.12415 0.34995 -0.23777 0.16763 -0.40644 0.23659 -0.035145 0.0276 0.29433 -0.11996 -0.062482 0.34877 0.085816 0.31012 -0.098406 -0.050853 -0.1309 -0.078912 0.36637 0.24201 -0.17467 -0.10946 -0.38844 0.32147 -0.18121 -0.025238 -0.087143 0.50109 -0.028144 0.25833 0.11933 -0.31868 -0.21528 -0.18525 -0.61514 -0.15967 -0.16829 0.070354 0.2298 0.34875 0.097971 -0.013649 -0.27006 -0.10007 -0.061862 -0.14882 0.14295 0.088173 0.49932 0.096923 -0.046496 -0.55318 0.040513 0.2567 -0.23315 0.19503 -0.05763 -0.050614 0.079275 -0.087386 -0.16971 0.18554 -0.049121 0.048511 0.1037 -0.18309 -0.27045 0.17491 -0.00031548 -0.57322 0.11898 -0.31967 0.24376 -0.55126 -0.095207 -0.13923 0.032423 0.18444 -0.022003 0.12084 0.23895 0.27739 0.056103 -0.25716 -0.27852 -0.050138 -0.16112 -0.53788 -0.023904 0.022109 0.2057 -0.066287 -0.0029273 0.26216 -0.15492 -0.25543 
ceramics 0.066631 0.14153 0.055341 -0.67896 0.14138 -0.63299 -0.31375 -0.080725 0.18205 -0.068081 0.33463 0.26279 -0.22978 0.04209 -0.56811 0.17157 -0.057006 0.29395 -0.21256 -0.44765 0.64869 0.44815 -0.32479 -0.079239 -0.13151 -0.0083138 0.26377 -0.12698 -0.13908 0.19056 -0.19207 0.56947 -0.13184 0.47304 0.22923 -0.068111 0.30175 -0.58514 -0.32231 -0.26364 -0.098123 -0.42825 0.2158 -0.32758 -0.34615 -0.57272 0.56712 -0.091095 0.16968 0.032235 0.11473 0.02925 -0.26399 0.059463 -0.014862 0.17703 -0.036232 0.093001 -0.22948 -0.13585 -0.99503 0.051155 0.10072 -0.288 -0.5534 -0.18531 -0.54682 0.27316 0.45773 -0.19301 0.15491 -0.28775 -0.27042 0.01697 0.096433 -0.76146 -0.18863 0.48112 -0.010232 0.17179 -0.20639 -0.48653 0.049094 -0.068564 -0.032363 -0.078329 0.22294 -0.058292 0.094643 -0.13943 0.46366 0.15424 -0.1565 -0.45974 0.081977 -0.62419 -0.12443 -0.11578 0.23927 0.28729 0.28952 -0.12054 -0.14452 0.23289 -0.20379 0.22946 0.49074 -0.12726 -0.036044 -0.037004 0.20446 0.22759 0.28389 0.15154 -0.19056 0.075072 0.098827 -0.19821 -0.03478 0.059475 -0.1271 0.44685 0.26453 0.29502 -0.34528 -0.0050035 0.48121 -0.12777 -0.62814 0.53902 -0.41843 0.27491 -0.15829 -0.019397 0.011435 0.12914 -0.4448 0.48682 0.10684 -0.25179 -0.082594 -0.074123 0.46881 0.34699 0.5966 -0.77448 -0.073755 -0.07957 -0.38737 -0.15298 -0.20882 -0.28927 0.21137 -0.62673 -0.27473 0.31847 -0.20707 0.39682 0.25188 0.55166 -0.21431 -0.21281 -0.082564 -0.14589 -0.32105 0.04684 -0.39347 -0.1572 0.040875 0.74573 -0.086482 0.43218 -0.30179 -0.17999 0.1937 0.28904 -0.53402 0.029482 -0.24306 0.086943 0.035487 0.40361 0.18808 0.12318 -0.14467 -0.01163 -0.38709 -0.11876 -0.089074 -0.33855 -0.1979 0.13124 0.084776 -0.071981 -0.12509 -0.47257 -0.31508 -0.22443 -0.9684 0.48757 0.19671 -0.033354 0.63623 0.41957 0.22035 0.19498 0.069704 0.46185 -0.17209 0.095258 0.10429 0.036635 -0.032977 -0.39392 0.43526 -0.11588 0.2477 0.20227 0.035846 -0.27625 0.02068 -0.014228 0.11762 0.38675 0.22774 0.046817 -0.19616 -0.13017 -0.44755 0.28316 0.14343 0.43473 -0.12143 0.22225 -0.34438 -0.47355 -0.23076 0.079958 -0.57094 -0.0070934 -0.17614 0.29556 -0.10732 0.44254 0.0066396 -0.020316 -0.30207 0.4153 -0.1163 -0.22209 0.23919 -0.28512 -0.060767 -0.17733 0.2564 -0.44168 0.10623 0.49638 -0.2882 0.21881 0.25752 0.2661 -0.076124 0.19815 -0.28312 -0.06132 0.15697 -0.089469 0.47797 -0.4037 -0.49825 0.2047 -0.0054553 -0.30122 -0.0024074 -0.24709 0.45796 -0.24925 -0.059956 -0.13805 -0.14423 0.031608 -0.20799 0.52736 0.035494 0.073291 0.032635 -0.034415 -0.12078 0.24917 -0.35805 0.046893 -0.015845 -0.17482 0.3058 -0.034608 -0.28084 -0.17934 0.12261 -0.011378 
chair 0.52249 0.7 -0.010069 -0.34947 0.009649 -0.19552 -0.41949 -0.19789 0.68889 0.3097 0.079899 0.21451 0.49078 0.42849 -0.38504 0.0019102 -0.077428 0.47329 -0.67695 -0.11985 0.061284 0.096884 -0.16923 0.073192 -0.31301 -0.34337 0.20619 -0.19458 -0.12596 0.29424 -0.14654 -0.12394 0.13813 -0.13603 -0.097132 0.06373 -0.43709 -0.48111 0.058609 0.33827 -0.52851 0.23771 0.34315 0.020408 0.15103 0.11617 -0.53322 0.23301 -0.25894 0.25655 0.17804 -0.15081 0.037108 -0.10798 -0.30731 -0.0041886 1.1387 0.39446 0.17535 0.37906 0.07647 0.47058 -0.40939 -0.52359 -0.442 -0.18065 -0.15838 -0.14858 0.28998 -0.2471 -0.22399 0.33382 -0.10377 -0.41293 -0.19939 -0.033995 -0.19167 0.24285 -0.13046 0.29783 -0.077019 -0.07321 0.0017703 -0.30606 0.052712 0.33443 -0.43536 -0.56211 -0.050727 0.025638 -0.26623 0.14417 0.010623 0.24035 -0.20631 -0.45247 0.21176 -0.11563 -0.017662 0.32665 -0.38791 0.36281 -0.093423 0.29707 0.23679 -0.455 0.16668 0.37811 -0.48101 -0.24211 0.30418 0.24354 -0.0093718 -0.50096 0.23125 0.042611 -0.13632 0.080834 -0.12555 0.13686 -0.55389 0.015925 0.22088 -0.049161 -0.13019 -0.15165 0.053158 0.5881 -0.28349 0.096816 0.031979 -0.045582 0.49835 0.075618 0.13632 0.21876 -0.43741 -0.48512 -0.19577 -0.11023 -0.066343 0.089683 -0.38717 -0.16114 0.05739 -0.47722 0.43002 -0.67757 0.16604 0.081627 0.53819 -0.34467 -0.068163 -0.4605 -0.062251 0.4911 -0.4986 -0.21438 0.34924 0.19154 0.40388 -0.037788 0.27701 -0.4165 0.0603 -0.26976 -0.60317 -0.15343 -0.076177 0.49333 0.054621 -0.36253 -0.097346 -0.0095901 -0.012041 0.042715 0.064088 0.13685 0.06082 -0.19042 -0.036533 -0.21466 -0.26045 -0.38796 0.62111 0.21341 0.051772 -0.19895 -0.0048406 -0.39446 -0.28301 0.12429 0.34257 0.16622 -0.037364 -0.13192 -0.48184 0.18349 -0.0052044 -0.18868 -0.015284 0.0046281 -0.007552 0.0076203 0.34579 0.50482 0.30105 -0.28682 -0.37615 -0.57906 -0.028762 -0.033625 -0.037544 -0.28625 -0.21354 0.10069 0.04956 -0.10767 0.31406 0.48658 -0.03621 -0.19551 -0.011631 0.2955 -0.19868 -0.22868 -0.02926 -0.12688 -0.070084 0.35936 -0.028252 0.54487 0.38241 -0.25686 -0.14684 -0.7052 -0.38759 0.33262 -0.56105 -0.38871 -0.23854 0.042322 -0.32642 -0.030934 0.56122 -0.31965 -0.077657 -0.32147 0.11987 -0.32778 0.078316 0.27103 -0.45693 0.078658 -0.21412 0.28809 -0.21914 0.39745 0.16002 0.65667 0.016092 -0.56668 0.16164 -0.10188 -0.029406 0.84555 0.12955 0.14274 -0.085094 -0.27352 0.27339 -0.077608 0.20541 -0.17671 0.49814 0.17591 0.061761 -0.51158 0.36977 0.13567 -0.66586 0.1972 0.38017 0.31426 0.21759 0.51659 -0.12253 -0.40997 -0.44726 0.3448 0.00812 -0.005772 0.34132 0.27831 0.17221 0.06315 -0.11801 0.19881 0.26559 0.5274 
cheap 0.01289 0.55244 0.10326 -0.4748 -0.45259 0.22993 -0.10754 0.17639 0.35578 0.071333 0.22884 0.34895 -0.11277 -0.15054 -0.3024 -0.049492 -0.21804 0.037435 -0.33754 -0.1659 0.58101 0.63608 0.055435 0.343 -0.14279 -0.37906 0.047533 -0.25601 0.17727 -0.12326 0.072619 0.57129 -0.29484 0.0077593 0.50716 -0.065603 0.076757 -0.30606 -0.30923 0.10756 -0.11228 -0.20488 0.18641 0.13951 -0.21955 0.27373 0.32034 -0.52265 0.2195 0.037044 0.088335 -0.17304 -0.33144 0.33963 -0.20199 0.071464 -0.061619 -0.13293 0.5216 0.15658 -0.45721 0.23546 0.33931 0.041192 -0.08271 0.41132 -0.23418 0.36481 0.167 -0.016509 -0.27329 0.38449 -0.16411 0.19913 0.14946 -0.2978 -0.30829 0.21118 -0.0082555 0.35174 -0.18466 -0.12796 -0.019107 -0.34183 -0.24088 0.14478 0.24605 -0.080594 -0.38913 -0.40573 -0.035298 0.060588 -0.1185 -0.50004 -0.038531 -0.32869 -0.32733 0.46204 -0.20457 0.23467 -0.014897 -0.23259 -0.033062 0.35319 -0.065303 0.081706 0.094345 0.10599 -0.17368 -0.22912 -0.18796 0.047694 -0.19667 0.013701 -0.036037 -0.63249 0.27202 0.16963 0.012266 -0.52171 -0.037064 0.068945 -0.20451 -0.13983 -0.029628 -0.67081 0.3498 0.21781 -0.2551 0.040259 -0.021102 0.036985 0.019822 0.25731 -0.16639 0.59667 -0.21454 -0.14163 0.17417 0.23044 0.35287 0.524 0.16602 0.42924 0.44254 -0.29631 -0.38652 0.06437 0.068111 0.27917 0.11336 -0.31951 -0.0092923 -0.2758 0.039444 -0.28233 -0.32586 0.23826 -0.29525 0.30176 0.33221 0.087069 -0.30658 -0.17781 -0.4532 -0.50477 -0.31904 -0.00073034 -0.12041 0.28259 -0.085819 -0.1106 -0.18685 -0.34955 -0.35266 0.02379 0.123 -0.065127 -0.047281 0.096425 -0.48276 0.25183 -0.22892 -0.091225 -0.10894 0.29809 0.25606 0.48069 0.055439 0.28339 -0.20603 -0.40767 -0.0045078 0.14871 0.069221 -0.30151 -0.58545 0.21449 0.20244 -0.1212 0.63177 -0.17564 0.23999 0.080863 0.33797 0.47576 -0.06813 -0.29328 0.15565 0.26839 -0.073172 -0.13806 0.10168 -0.0048982 0.16534 0.0074651 0.080586 0.10875 0.031591 -0.24702 -0.0030552 -0.05193 0.23077 -0.051212 -0.22871 -0.44919 -0.15015 0.16216 -0.35646 0.19096 -0.33948 0.24942 0.10077 -0.021812 -0.3726 -0.34122 0.294 -0.32618 -0.2269 -0.071322 -0.29421 0.26219 -0.45567 -0.149 0.18703 -0.093833 -0.29274 0.074237 0.0534 0.13761 0.012201 0.095945 -0.21985 -0.29215 -0.07061 0.2486 -0.23645 -0.11235 -0.39237 0.58553 0.46755 0.13481 -0.31678 -0.10304 -0.41378 0.059556 0.33771 0.45445 -0.29773 -0.083519 0.11273 -0.10377 -0.18048 0.24513 -0.036656 0.1034 -0.21941 0.114 0.01582 0.13607 0.45747 0.12129 -0.14928 -0.32369 0.066557 0.098408 0.027516 -0.24998 -0.28499 -0.14153 0.35966 0.13032 0.024665 0.024523 0.18971 -0.70909 -0.42441 0.22841 0.0342 -0.40227 
classical 0.24713 0.085354 0.26728 -0.40029 -0.18645 0.017451 0.084685 -0.078639 -0.086661 -0.0063766 -0.1704 -0.25307 -0.20848 -0.025485 -0.18919 0.27165 -0.19156 0.4716 -0.7341 -0.17827 0.49028 0.14923 -0.057457 -0.37553 -0.22882 -0.57981 0.33496 -0.020537 -0.18002 0.0011575 -0.33339 0.053296 0.58222 0.1798 -0.011777 0.03572 0.34229 -0.076707 -0.29339 -0.1501 0.45731 -0.13737 0.26235 -0.30478 0.11684 0.048664 0.018123 -0.28391 0.35365 -0.094863 0.23075 -0.013548 -0.15132 -0.25537 -0.34623 -0.32924 0.33846 -0.08475 -0.21064 0.26517 -0.039831 0.39951 -0.6226 -0.26604 -0.043242 0.26642 -0.19612 -0.090667 0.061941 0.2151 -0.04413 0.21055 -0.60945 -0.055724 -0.19614 -0.010078 -0.23683 -0.06685 0.014084 0.099429 -0.18112 -0.13064 0.42125 -0.32582 0.15146 -0.15847 0.024107 0.014947 -0.39609 -0.88582 0.11038 -0.29022 -0.054238 -0.060727 0.25936 -0.050852 -0.44492 0.060776 -0.171 -0.026807 0.7534 -0.57157 -0.18502 0.24177 -0.091478 0.59831 0.018814 0.10535 0.26847 -0.38592 -0.005462 0.092876 -0.0083334 -0.11578 -0.049645 -0.084976 -0.3101 -0.24419 0.45807 0.038154 0.55098 -0.11653 0.067956 -0.070352 -0.44782 -0.18623 0.33503 -0.031685 -0.28894 0.28869 0.097482 0.081096 -0.19488 0.31534 0.68449 -0.087681 0.087514 -0.24129 0.065103 0.031892 -0.3787 -0.29775 0.096122 -0.098047 -0.56991 0.028689 0.066367 -0.255 -0.14496 0.35707 0.087172 -0.042465 0.076031 -0.2621 -0.059518 0.1881 -0.2768 0.27674 0.31918 0.33217 -0.090697 -0.18212 -0.35416 -0.24011 0.096963 0.17227 -0.16322 -0.15553 -0.19689 0.14148 -0.24907 -0.063775 0.21695 -0.089171 0.1433 -0.23178 0.14469 0.13697 -0.4033 -0.010376 -0.14195 -0.12771 -0.2232 0.45629 0.12209 -0.11183 -0.16983 -0.091581 -0.31177 -0.14718 -0.53243 0.2805 -0.041514 -0.34143 -0.089213 -0.22393 -0.74584 0.30646 -0.050478 -0.22334 0.36754 0.15689 -0.14902 0.13858 -0.38593 -0.35962 0.050265 -0.35878 0.10576 -0.1508 0.23987 0.095894 0.33618 -0.44046 -0.17022 0.0018145 0.025154 0.07818 -0.13759 -0.24629 -0.082186 0.053456 -0.13513 -0.00035387 -0.074339 -0.13388 -0.0080405 -0.19163 0.0068842 0.53025 0.67759 0.16175 0.1686 -0.21026 0.10242 0.30324 -0.027583 0.33014 0.071508 -0.024312 0.037787 -0.085855 -0.16788 0.27859 -0.027518 -0.33396 -0.055473 0.17776 0.22274 0.12264 -0.13141 0.088818 0.12129 0.095907 0.095687 -0.014923 0.069223 -0.0036011 -0.26508 0.69933 0.51018 -0.094468 0.083389 -0.13465 -0.14765 0.096144 0.024865 -0.51622 0.42928 0.26207 0.1572 0.12342 -0.324 0.047126 0.13144 -0.021483 0.50387 -0.36658 -0.019357 -0.073024 0.065687 -0.30559 -0.042969 -0.27862 -0.12012 -0.031858 -0.11521 0.04584 -0.37804 0.083099 -0.27982 0.42185 0.0018629 0.13057 0.23442 -0.023231 -0.050285 -0.1478 -0.054211 -0.093896 
cloth 0.046113 0.28686 -0.41158 -0.089112 -0.32152 -0.191 -0.14174 0.11259 0.36928 0.31324 0.10899 0.57765 -0.041161 0.40862 -0.37929 -0.22375 -0.15341 0.28253 -0.36002 -0.14548 0.39445 0.65178 -0.84876 -0.49642 -0.20456 -0.61432 0.71512 -0.70075 0.16351 0.28019 0.25103 -0.16795 0.38605 0.37861 -0.12681 -0.48724 -0.071419 0.032617 -0.0052318 -0.074982 -0.27849 -0.34044 -0.15381 -0.22457 -0.20149 -0.079056 -0.19087 -0.11424 0.13932 0.015356 0.0654 -0.32252 0.48709 0.078834 -0.23026 -0.047018 -0.046494 0.1357 0.15949 -0.39016 -0.34626 0.23734 0.16958 -0.42725 -0.084345 0.2037 -0.73022 -0.03468 0.24531 -0.28571 0.13439 -0.20153 -0.070658 0.062056 0.023514 -0.18939 -0.3738 0.47025 0.10639 -0.18836 -0.31542 -0.41476 -0.25054 0.25264 -0.18927 -0.29602 0.091448 -0.26173 0.12612 -0.66603 0.42163 -0.058419 0.077222 -0.058538 -0.1493 -0.3026 0.12289 0.16794 0.25307 0.18339 -0.30871 0.20038 -0.18681 0.16027 0.2357 -0.042246 0.26847 -0.055717 -0.057844 0.36359 -0.19717 -0.1116 0.49622 -0.2309 0.20881 -0.12025 0.2928 0.079064 0.52729 -0.089873 -0.22828 0.41769 -0.01676 0.12894 -0.15158 -0.29725 0.1305 -0.045977 -0.032688 0.17411 -0.1179 -0.31747 -0.0072663 -0.045989 -0.22008 0.34144 -0.063192 0.36736 0.083527 -0.42483 -0.37356 0.27138 -0.056845 0.59837 0.27096 -0.32206 0.088842 -0.17779 -0.4757 -0.18921 0.14887 -0.039509 0.50342 -0.51517 -0.046387 0.12435 -0.26493 0.59011 0.19858 0.39193 -0.2993 -0.11686 0.046018 -0.35208 -0.36705 -0.385 -0.0080071 -0.1122 0.20715 0.27642 -0.245 -0.31943 -0.121 0.20104 0.28452 0.143 0.033347 0.085746 0.23623 -0.072681 -0.67286 0.32456 0.046525 -0.16311 -0.41451 -0.10656 -0.26787 0.12069 -0.068183 -0.11569 -0.3118 -0.064349 0.12679 0.15381 -0.26722 0.13142 -0.23426 0.099759 -0.24078 -0.069617 -0.41237 0.18801 0.45868 0.12651 0.23784 0.12668 0.19949 -0.43597 -0.12869 -0.2458 -0.017978 -0.31392 -0.11892 -0.020193 -0.28912 0.13969 0.49633 -0.0718 -0.21271 0.14964 -0.18381 0.024226 -0.1367 0.59561 -0.30631 -0.2121 -0.56937 -0.17244 -0.10144 0.20417 0.10665 0.44256 0.0088502 -0.021504 0.41103 -0.14073 0.030617 -0.41269 -0.47398 -0.50662 0.34016 -0.55513 0.28835 -0.018704 0.24445 -0.24753 0.18425 -0.29093 0.14305 0.5108 0.099844 0.19731 0.091108 -0.52967 0.12087 0.10011 0.075185 0.36053 -0.085985 0.20903 0.41298 -0.1848 -0.40162 0.12049 -0.65916 -0.28055 0.095959 0.40713 -0.14934 -0.12493 -0.11668 -0.31875 -0.98285 -0.55273 0.17707 0.071961 0.23668 0.075824 0.2387 -0.2233 -0.12925 0.046004 0.47722 0.16764 -0.026353 0.24626 -0.27546 0.19954 -0.33047 0.092628 -0.3799 -0.25284 0.085588 -0.74122 0.30549 -0.26025 -0.44199 0.35971 0.22943 -0.023403 
collage 0.096175 0.20068 0.37326 -0.40662 -0.035341 0.34111 -0.22748 0.072919 0.0048602 -0.20133 -0.062571 0.0031986 -0.26839 0.22192 -0.12108 0.023265 -0.079406 0.13713 -0.36113 -0.16596 0.15807 -0.22802 -0.22365 -0.13935 0.096024 0.18286 0.20834 -0.36435 -0.17117 0.29278 0.11799 0.069042 -0.18069 0.13692 -0.12556 -0.1742 -0.27171 -0.095312 0.1225 -0.09933 -0.33252 -0.41414 0.52881 -0.053058 0.34229 0.028485 -0.20159 0.13213 -0.020181 0.27761 0.18711 0.24673 -0.26617 0.076093 -0.15028 0.17311 0.10914 0.51182 -0.11518 0.034694 -0.37521 0.44357 0.25359 -0.067084 0.049397 -0.038153 -0.4551 0.27771 0.42235 -0.19608 0.31326 0.11201 -0.34848 0.10091 0.49168 -0.79592 -0.19671 0.052549 -0.26942 0.13298 -0.31655 -0.046267 0.46716 -0.29242 -0.057354 -0.041827 0.11706 0.2989 -0.56811 -0.25508 0.05139 -0.088515 -0.14043 -0.22679 -0.11674 -0.46566 -0.12946 0.33333 0.43843 0.041349 0.21377 0.053056 0.39301 0.14951 0.19789 -0.0066002 0.1364 -0.19141 0.071268 -0.083375 0.082194 -0.20734 0.42684 0.21264 0.30888 -0.069127 -0.25477 -0.11119 0.18702 0.13809 -0.24226 0.046997 -0.081026 -0.16417 -0.18346 0.046309 -0.18607 -0.055151 0.28089 0.10105 -0.27981 -0.065652 0.021546 0.27662 -0.21501 0.16895 0.0044482 0.20331 -0.14352 0.2989 -0.0217 -0.030383 -0.43706 0.017941 0.34948 -0.32088 0.1837 -0.29075 -0.20849 0.048644 -0.33043 0.21253 -0.17326 0.29186 0.083389 0.44846 -0.14671 0.42579 0.059981 0.42144 -0.57096 0.16685 0.21948 0.012645 -0.41271 0.20861 -0.28994 -0.38571 0.28358 -0.10509 0.091202 0.12891 0.006305 0.27555 -0.067332 0.17069 0.37493 -0.049424 -0.18255 -0.10611 0.054827 0.41469 -0.16702 0.4569 0.19317 -0.076802 -0.13453 0.14687 -0.03878 -0.3119 0.080371 -0.19573 -0.12235 -0.18969 0.014241 0.0090833 -0.5764 -0.082036 -0.019761 -0.033727 0.15702 0.041505 0.24131 0.080645 0.28022 0.40219 0.11122 0.17199 0.083338 0.2229 0.2582 -0.15214 0.042081 0.059237 0.2291 0.24458 0.13866 0.060143 -0.15314 0.0067491 -0.11763 -0.057285 -0.33706 0.25869 0.16944 -0.46269 -0.46986 -0.16178 -0.1474 0.19554 0.25357 -0.2064 -0.23234 -0.0046046 0.025703 -0.30304 -0.10803 -0.08365 -0.19966 0.10186 0.14253 -0.33432 -0.16455 0.0037883 0.21916 -0.090314 -0.081085 0.0092775 0.26203 0.31623 -0.057067 -0.14952 -0.51302 0.051554 -0.062702 -0.066874 -0.21925 0.28584 -0.50113 0.049046 0.14744 -0.1791 -0.4489 0.23643 -0.018052 -0.069968 0.17568 -0.089718 0.57442 -0.039018 -0.45735 -0.031189 -0.19023 -0.22986 -0.0090452 0.15573 0.061501 0.0018836 0.031334 0.091453 -0.27073 -0.12882 0.36041 -0.19493 0.11718 0.25508 0.20851 -0.13196 -0.0035663 -0.22494 0.093522 -0.52963 -0.25786 -0.15624 0.026194 0.073078 0.13353 0.0063317 0.40883 -0.0085082 
comfortable 0.3924 0.34061 0.42724 -0.13043 -0.16027 -0.16914 -0.10259 0.27581 0.25316 0.21458 -0.10984 0.38706 -0.055481 -0.08648 0.040614 -0.22513 -0.17013 0.032775 -0.08561 -0.36661 0.18756 0.32148 -0.06734 -0.32588 0.15335 -0.097219 0.094236 0.085197 0.12618 0.15627 -0.044033 0.063559 0.015813 0.55529 0.054965 -0.22851 -0.21747 -0.29309 0.26979 0.16249 -0.13843 0.29176 0.22825 -0.1387 -0.22712 0.075599 -0.35429 -0.17348 0.30765 -0.10763 0.16387 0.018001 -0.66426 -0.10976 0.022562 0.22451 0.26963 0.19802 0.056112 0.032096 -0.22619 -0.10072 0.043101 -0.16969 -0.34568 -0.12288 -0.12155 -0.031623 -0.14371 -0.28226 0.22005 0.12966 0.043378 0.05725 -0.14226 0.02853 0.18486 0.2303 0.13167 -0.1116 0.3505 0.018095 -0.34226 0.010864 -0.15928 -0.13468 -0.066259 -0.04356 0.25087 -0.10686 0.16622 -0.27767 0.46358 -0.061414 -0.024556 -0.20587 -0.31252 0.14533 0.23004 0.31494 -0.10896 -0.068166 -0.3739 -0.027491 -0.38425 0.043563 0.080811 -0.12397 -0.1249 0.16266 -0.045669 -0.068341 -0.078682 0.018188 0.037138 0.049055 0.18334 0.27623 -0.12634 -0.023526 -0.14821 -0.12753 -0.20514 0.074944 -0.35064 -0.33275 -0.30097 -0.15515 -0.5503 0.21134 0.18088 -0.098695 -0.22682 -0.17578 -0.28207 0.21085 0.01186 -0.10943 -0.14127 -0.17462 0.20564 0.37987 -0.082765 0.15957 0.072158 -0.33187 0.21604 0.047276 -0.40059 0.073374 0.2711 -0.060832 0.4909 -0.20752 0.30792 0.083217 -0.040849 0.37635 0.15728 0.22031 -0.19663 0.097414 0.2002 -0.4709 0.036341 0.10823 -0.058628 0.16488 -0.12247 0.35311 -0.17526 -0.18885 -0.089774 -0.068789 -0.0046691 -0.020208 -0.03551 -0.47814 0.22128 0.37406 -0.10582 -0.069316 -0.41148 -0.27813 -0.4012 -0.13162 0.21465 0.15298 -0.0041225 0.10848 -0.17536 -0.14283 -0.070088 0.23288 -0.2117 -0.43759 -0.46468 -0.052413 0.17837 -0.010361 0.07083 0.045663 0.11076 -0.055727 0.070166 0.029815 -0.10856 -0.41509 0.010862 0.21334 0.51222 0.18363 0.23242 -0.49533 -0.25144 0.24626 -0.067159 -0.090097 0.23417 0.016503 0.5918 0.12355 -0.17597 0.31159 -0.011605 -0.035812 -0.59065 0.1165 -0.07053 0.24812 -0.12557 0.71081 -0.21769 -0.26208 0.072671 -0.12108 0.1037 -0.41593 -0.14229 -0.34975 0.30075 0.49476 -0.25458 -0.0044389 0.1607 -0.36661 -0.26204 -0.44282 -0.20052 -0.11935 0.10013 0.67961 -0.11847 0.024688 -0.22989 -0.10695 -0.14332 0.21808 0.20557 0.30933 0.12408 0.29984 -0.086934 0.20399 -0.038948 0.31542 -0.15305 0.19495 -0.26424 -0.424 -0.20495 -0.11692 0.26971 -0.25487 -0.25057 0.32166 0.132 -0.38533 0.54394 0.054398 -0.12901 0.22583 -0.06798 -0.099 0.32557 0.30311 0.026206 0.043651 0.046381 -0.12548 -0.062923 -0.46435 0.088533 -0.059079 0.036275 -0.19038 -0.61072 0.18174 -0.22024 -0.37146 
concrete 0.020914 0.46603 0.049952 -0.456 0.19695 0.10068 -0.22503 0.060833 0.62262 0.22991 -0.027446 0.093356 0.32491 -0.017744 -0.33227 0.048786 -0.050528 0.027465 -0.19012 -0.52878 0.20497 0.37688 -0.52512 -0.16005 0.080347 -0.31499 0.067365 0.28549 -0.21135 0.5338 0.34716 0.2632 0.14666 0.33164 0.018752 0.040112 0.028378 0.066333 -0.20751 -0.89224 -0.45027 -0.44057 0.15977 -0.33689 0.17499 -0.010891 -0.0066364 -0.22339 -0.033255 0.050882 0.50476 -0.11284 -0.083392 -0.25311 -0.042456 0.16772 0.052895 0.13728 -0.40508 -0.011332 -0.31716 0.12427 -0.16041 0.59909 -0.31332 -0.21914 -0.70558 0.31419 0.43517 0.030757 -0.13748 0.44602 0.40049 -0.35034 -0.062562 0.089007 -0.00066333 -0.053987 -0.33306 0.092089 -0.18273 0.12686 0.30706 -0.4097 -0.23114 0.41081 0.010675 0.12392 0.14479 -0.12911 0.39391 -0.14257 0.14495 0.073908 -0.087466 -0.42628 -0.32964 0.71186 -0.082049 -0.014992 0.21718 -0.43892 0.20014 0.31055 -0.37739 0.16762 0.045083 0.076474 -0.1649 0.14975 -0.39172 -0.2054 0.30012 -0.10249 0.3144 -0.1372 -0.091541 0.17448 -0.023334 -0.18403 -0.26554 0.22531 -0.2783 -0.0025717 -0.58423 -0.49971 0.40272 0.15985 0.10396 0.10326 -0.15168 -0.092117 -0.037786 0.053249 0.14196 0.2498 -0.3715 0.32718 -0.073837 0.084872 -0.11135 -0.094177 0.719 0.18275 0.72046 -0.38129 -0.23425 0.1596 -0.094164 -0.098516 0.018435 -0.33749 0.20554 -0.63123 0.013988 -0.034491 -0.26157 0.18229 0.16825 0.35354 -0.41483 -0.01328 0.18164 -0.2482 -0.12129 0.10614 -0.13326 -0.13166 -0.48406 0.3408 -0.322 0.18451 0.013585 -0.28566 -0.36414 -0.054322 -0.16287 0.037346 -0.36275 0.80025 -0.26814 0.17791 0.062203 -0.034615 -0.52774 0.1295 -0.15267 0.05704 -0.2897 -0.16336 -0.31908 0.26045 0.038471 0.35785 0.42082 -0.48407 -0.24382 0.074929 -0.41305 0.24422 0.13843 -0.16663 0.081055 -0.092695 0.11666 -0.075807 -0.36813 0.39907 0.32641 -0.10649 -0.34492 -0.038672 0.1739 -0.26961 0.11316 0.13742 -0.23551 -0.0097108 0.024206 0.077711 0.33628 0.081428 -0.1566 0.13597 -0.07232 -0.0053726 -0.56016 0.33509 -0.17389 0.4023 0.38941 0.16512 -0.032259 -0.19823 0.027689 -0.20064 0.016649 -0.19649 -0.094488 -0.21634 0.27101 0.02514 -0.36177 0.090982 0.11344 0.28929 -0.19598 -0.062282 -0.12315 -0.38257 0.32932 0.23678 -0.038094 -0.18323 0.10999 -0.09397 -0.17972 0.30179 -0.31836 0.36991 0.031744 -0.16355 -0.15023 0.37542 0.29165 0.057807 -0.21833 -0.14945 0.08482 -0.011508 -0.039569 0.025391 -0.017951 0.22814 0.11917 -0.0084071 0.2567 -0.47805 -0.14788 -0.033867 -0.02587 -0.082117 -0.15747 0.11108 0.29746 0.16536 0.092738 -0.042224 -0.15591 -0.04995 -0.16794 0.20151 -0.47171 -0.12312 0.28042 -0.17802 -0.23038 0.27212 -0.0067237 -0.16419 
contour -0.027336 0.076932 -0.18935 -0.095836 -0.017505 -0.099228 -0.097292 -0.049773 7.4919e-05 0.03127 -0.014254 0.14739 -0.15656 -0.13568 -0.099893 -0.17361 -0.23948 -0.022236 0.29076 -0.56144 0.43001 0.31765 -0.26798 -0.012424 -0.054695 -0.0897 0.13634 0.035076 -0.49864 0.20497 -0.13092 0.014843 0.060273 0.40714 -0.28537 -0.3039 -0.08815 0.12981 -0.06826 0.079628 -0.39532 -0.1063 0.099999 0.013365 0.17316 -0.084781 -0.2756 0.038357 0.054379 -0.10873 0.13396 -0.10202 -0.15732 -0.11348 0.12319 0.16779 0.2768 0.1379 0.18571 0.057725 -0.24586 0.16499 0.20356 0.33054 -0.20296 -0.053702 -0.52071 0.092977 0.014555 -0.30732 0.0023008 0.116 -0.083526 0.076478 0.13804 -0.27067 -0.1727 0.22891 -0.0083807 -0.12224 -0.068497 -0.24469 0.26694 0.024784 -0.39351 -0.23525 -0.15487 -0.006127 -0.094679 -0.042455 0.26129 0.12304 0.053473 0.10158 0.17935 -0.36659 -0.19474 0.097551 0.256 0.18907 0.20735 -0.43208 -0.05274 0.17305 -0.017706 0.19845 0.0986 -0.096976 0.048765 0.18911 -0.18897 0.2329 -0.16539 0.18975 0.20778 -0.23965 0.24392 0.26 0.10767 0.075344 -0.27486 0.077987 0.42679 0.18325 -0.021035 -0.31953 0.17626 0.37938 0.20056 -0.090702 -0.11472 -0.32349 -0.17957 -0.011454 0.21921 0.12377 -0.19892 0.18973 -0.11872 -0.022999 -0.12559 0.1512 0.21242 0.017979 0.12123 -0.11678 0.01585 -0.13434 -0.19769 0.0016075 0.035605 0.17506 0.26355 -0.1792 0.077944 0.011729 -0.15135 0.39563 0.023997 0.25403 -0.3259 0.02452 0.022605 -0.10105 0.029409 0.13848 -0.24523 0.076491 -0.086999 0.0039618 0.051529 0.079467 0.10141 -0.15979 -0.34037 0.45235 0.41207 -0.049569 -0.42127 -0.081913 -0.33743 -0.018589 -0.11201 0.22913 -0.033939 -0.29187 -0.32424 0.20059 0.024288 -0.15739 -0.020634 -0.0090043 -0.24853 0.19872 0.12189 -0.15949 -0.22132 -0.12222 -0.1407 -0.14192 0.29208 0.1937 -0.04957 0.19902 -0.12288 0.050338 -0.22695 0.14439 -0.073906 0.11961 0.24809 0.24272 -0.15132 -0.27828 0.039523 -0.23231 -0.10641 0.036898 -0.12501 -0.039542 0.27097 0.18005 -0.011153 0.14275 0.14834 0.050101 -0.2056 0.077969 -0.0068289 0.17732 0.040097 0.058731 -0.22495 0.22477 0.17323 -0.33793 -0.13728 -0.18125 -0.25869 -0.064596 0.11196 0.050306 -0.050008 0.058352 0.29514 -0.048129 -0.16455 0.051276 0.02027 -0.13072 0.038036 0.26942 -0.0064859 -0.2469 0.22147 0.044133 -0.016467 0.26271 0.028857 0.29982 0.12211 -0.44547 -0.056184 0.015827 0.27953 0.17837 0.022528 -0.20326 0.19069 -0.088573 -0.32514 0.51553 -0.27386 -0.13619 0.067548 -0.004541 0.24075 -0.55285 0.33576 0.16417 -0.28103 -0.05251 0.056878 -0.11236 -0.019832 0.23012 0.16979 0.03651 0.17747 0.019741 -0.041274 0.039527 -0.39022 -0.20593 -0.012889 -0.020318 -0.33951 -0.0090983 -0.31217 -0.02797 
